{
  "version": 2,
  "base": {
    "w1": [
      [
        -5.739421773540242,
        4.921747848546518,
        -2.6772391341531985,
        -1.1229211500827323,
        0.533627538091097,
        -4.544737220709211,
        -1.8155580341010373,
        -0.5995814022720471,
        -1.3881620633025984,
        3.4998465076529577,
        3.502971214235626,
        -1.393819780393061,
        2.2169459136213066,
        -2.5999212868790327,
        2.3037212543677588,
        7.484316703500829
      ],
      [
        5.0175893401003835,
        3.1018081157143085,
        -1.7470987621637957,
        -0.128749281132519,
        -4.690523444853377,
        2.401270984398209,
        -4.251131599191248,
        -1.3065285174244046,
        1.407114086341076,
        1.5121453594977874,
        -4.30015500482242,
        2.6554642199163268,
        0.9976484043759318,
        -0.2561480194412555,
        1.2738561674052653,
        -2.7699861307788667
      ],
      [
        3.567856016425785,
        -1.9448359747152448,
        -0.14666955368619225,
        2.17944655656835,
        -2.400616593921714,
        2.161885010030831,
        1.2152146036037927,
        0.31644312497236393,
        3.0722356186588153,
        2.6688336407913953,
        -3.0890596781882267,
        1.9768874553613522,
        4.4467561379407226,
        2.7094832418393953,
        -5.888762345794048,
        0.6623386374299608
      ],
      [
        8.722574619975106,
        0.9087364220727301,
        -2.56091431167577,
        2.7659613889256733,
        1.272714832125945,
        4.332962609208279,
        -2.9085986378358895,
        -6.016126772088477,
        -1.5178027582061717,
        5.286770704860147,
        2.145860104042197,
        -5.5705530357930515,
        0.7799968192961217,
        0.6279696490098721,
        -2.6718365141359453,
        1.9929545150161976
      ],
      [
        -1.2816733221686283,
        0.3547480747473309,
        -0.6921356579753013,
        -0.57583880086414,
        -5.33603762324709,
        -1.8340126066378164,
        1.4561528238385568,
        -1.7444532935900574,
        1.739310601888284,
        -1.5296279894200127,
        -0.9217043171758216,
        1.513452487153643,
        -1.4850858627703547,
        0.8014130763392173,
        0.18144318172518709,
        3.623695872231068
      ],
      [
        3.8712300177127124,
        0.1489680108139578,
        1.8175543255234714,
        -3.9114560862363743,
        1.7272727815606894,
        -0.13183038363291985,
        -1.420383727044223,
        -1.3069084592815121,
        -0.5384081901672987,
        -0.20492447545843834,
        7.770344467699984,
        -3.2085001757621976,
        0.9202732735570233,
        0.4683749415101227,
        4.882957954254686,
        3.9176927368012158
      ],
      [
        -3.952429301820919,
        -4.834498966668332,
        -4.365373158577502,
        3.5917133333399014,
        -4.54983616392523,
        4.8761950271960535,
        -1.4916810884666332,
        -0.7332676886202345,
        4.232518143939568,
        -1.3054272099304054,
        -2.1255591571358337,
        1.235912442290709,
        -1.0420431539274893,
        -1.3308094797104413,
        1.909220291788014,
        -0.8841720927833594
      ],
      [
        -0.13912663423758526,
        3.2455460612367224,
        3.8168178733963267,
        -3.561777645190669,
        6.412836595154948,
        -5.21085283524854,
        1.5991336983574647,
        -3.583784650351793,
        1.768823655260353,
        -2.312402085697963,
        0.3426761046300742,
        -2.192683888669418,
        -4.145837741943439,
        3.84747139479778,
        0.8856255595189537,
        1.1367594248789477
      ],
      [
        -3.437631212420593,
        1.6241312576874005,
        1.4632440558307305,
        -0.9886089811172534,
        -4.453859134315737,
        3.8327709110672457,
        -2.401309924310477,
        0.12202531441015753,
        1.3067657514988789,
        -2.339759365371521,
        -0.34492683965592846,
        2.356962688465409,
        -2.533020003807502,
        6.4403652841185695,
        0.7719726420329379,
        2.3442839676994156
      ],
      [
        -3.8167140801795316,
        0.4532755444146469,
        -0.019201680404570355,
        -2.8960638662913687,
        2.0364595968555235,
        1.711570295264837,
        -3.5908962362081494,
        -3.216879900173565,
        3.5388644529700835,
        4.862482381168263,
        -3.161778505323046,
        -2.9036385127731332,
        -6.213623591457162,
        -0.6208041803889117,
        0.6916247102961076,
        -0.42564591674429
      ]
    ],
    "b1": [
      1.1244107890979158,
      0.2147607595794404,
      -3.0225798134275887,
      2.4582720294755775,
      0.23097057269566693,
      -3.90460726598112,
      -0.5086955851308479,
      5.104450014287158,
      -1.4640715706207146,
      -1.4591008341692036,
      -2.8357983333187873,
      -2.242413506179553,
      0.8998647839301742,
      2.924620825319105,
      -1.4434604530262785,
      -2.593389333140514
    ],
    "w2": [
      [
        -0.546516877949683,
        1.4108858966051725
      ],
      [
        -1.8809158742482899,
        0.24862068990143543
      ],
      [
        -4.35858631321849,
        -1.314917173862226
      ],
      [
        -2.26308917692193,
        2.263866451240948
      ],
      [
        -0.8834986563410734,
        0.1626736392536475
      ],
      [
        -2.3119361496782895,
        0.7185336813842165
      ],
      [
        0.8597724102141987,
        2.2677630455657702
      ],
      [
        3.3184496425138907,
        2.660097292762939
      ],
      [
        -3.384887091226587,
        -0.8138599784327513
      ],
      [
        -0.11976215492197481,
        4.515627672039977
      ],
      [
        1.4073191253924462,
        0.7257760809340426
      ],
      [
        -2.5590501332702016,
        -1.2169026523763813
      ],
      [
        2.7501672188518627,
        3.015699261211943
      ],
      [
        3.914535546219173,
        0.191348793145408
      ],
      [
        4.4971598889439734,
        1.1877040292918293
      ],
      [
        3.7371954036101593,
        5.220551102446698
      ]
    ],
    "b2": [
      -3.253035278649586,
      1.0194636128665238
    ]
  },
  "adapters": {},
  "currentLevel": 0
}