{"w1":[[-0.9775139440804433,2.6315971017246387,1.785642411068701,-0.9667774304350989,0.8682993904985195,-3.995159584502159,-0.9410231458686693,-2.3851769619442074,0.270495626710265,-2.5024628966643627,-0.17820478566736797,-3.795378851043509,-0.7505605351146125,0.1637461143101601,1.0684807278027366,-0.16797627724952185],[3.3287564905653766,-3.179601497510865,-1.864993983549208,-0.3147210391603985,-1.8215465982178365,-0.7388513948362703,-3.290634072637282,1.0382221296762755,3.2451884805621916,-0.7100837417739646,-0.4323143776527679,-1.3833253862498627,0.07933689720884635,-1.6225646967772716,3.8118037514642875,-1.0414418113995718],[-3.187087157678515,2.393290043221641,-1.6080104259147308,1.2519994997213564,-1.699788899948482,-0.5983740184808342,1.748605256193817,0.6116837393801757,2.1703245640881614,-0.07690579451403803,-3.474906532307731,1.5324757710851307,1.5024644416642041,1.9149188194957407,0.1392387615275582,1.5583456878570812],[-2.1193790068073137,-1.4546157811687255,-1.0486857770540317,2.8291420976932993,-1.9585543769022349,0.19808455094936148,1.4793728716970218,1.089198823993352,-1.4013568123066638,-2.608411752359214,-0.9512042147164073,2.082604321648336,1.401854320959171,-0.029937062326834858,1.1191084273493472,0.2591705127713028],[-0.940847514965676,-1.541787938716659,-1.6926258307836175,1.8990841750528291,-1.033651119706141,-0.6204293265400412,-0.6705766597055177,4.594252808259595,0.5457842910419273,3.5757167909052985,-1.7669884200154828,1.3349454127176636,3.164454413143411,1.4148645930101806,-2.462636505461132,-3.03077043003989],[-1.175244802636776,1.3936459497968343,-0.9157405738124094,0.039218041685080085,0.9822323808678278,3.7286586852888286,0.49612464534732226,-0.40576407290802,-0.4830573738869098,-0.2785098484798063,-1.7559947312398327,-4.643360941262458,1.7056174995132367,-2.9278541999083583,-1.7977176815230933,0.6664575086374193],[0.9520503220458979,0.8977209572013869,0.06822303295745905,1.8525720711495928,0.9247291452851552,0.44338626547268933,-2.93025018617299,1.5755671393514623,-1.0184605494051289,0.2043478301237053,1.174661155124343,0.7076260882975078,-1.1517752383698039,-0.05996427105925831,0.05315073475098547,-1.7605352994713008],[3.1796440846129195,0.8975031195670504,1.5789321006262216,0.7001576560751979,-0.5369412996331495,-1.0900065669698016,1.1658502123748629,1.1214622181452263,-2.23746714336189,1.2417743033578286,-0.8952864218883531,-3.1888856106560834,3.084465381399798,4.753147088071461,-0.7812325002199906,-4.678051657696524],[-1.1492337196933362,0.6062910799732961,0.6137136822921523,-2.558934124083031,0.16578217504908796,-0.5752374792862102,-1.6175120969525019,-0.9751936704643733,-2.219655341651215,1.1640316611433827,1.005068146839335,2.9842562963905963,1.5859921488001498,-3.805977793292176,-0.8368370526070267,-1.4838190198377188],[3.1122516070108492,-1.6879499641802664,-1.3484074200216423,-1.434549503367108,-0.07048111037267701,-1.164171892344764,-0.615668796031046,0.7696300485610417,-1.89956195059542,-0.20034227262953608,-3.8606170419370325,1.9837549186596635,-0.8366780405382328,0.853822738554944,2.666209807954307,-0.7838905509515354]],"b1":[0.8904363129846605,0.24054490815727245,-0.183734141905842,0.443666419663559,-1.1030522024308411,-0.8878698041430074,-2.105811077288213,-4.274185424320846,-0.046683105998261226,1.1360850648515282,0.38979742962054326,0.4429397021611376,-1.6874155266573336,5.390601339723867,-1.954572212523446,-3.01621231958434],"w2":[[-2.8524792337747478,3.119606098048988],[-0.14297791900696136,-1.0469017834121785],[-0.05501071344344599,0.883802610190888],[-0.09142374101399572,0.9919413561309682],[-1.152344141698733,0.9339455806246023],[0.24932622172555197,1.1786698108172802],[0.7473684202657402,1.1155486514261383],[0.0060141707784065745,-4.4613070639600005],[-1.7574323661997107,0.4499980794098838],[2.36029781648702,0.791211162763448],[3.82526489341613,-2.9295925597088766],[-4.816163764931541,-3.024343499234641],[-0.36317349203394866,1.1035243766694407],[-0.1331941611780223,-1.2939022614068607],[-2.8089135761634068,-0.7383113827948677],[-1.104625893592197,-2.5071300596895942]],"b2":[0.42066145561480495,0.6655034401820357]}