{
  "version": 2,
  "base": {
    "w1": [
      [
        -0.07495323929449109,
        -0.4403321795740657,
        0.8673873170498912,
        -0.3515884172278438,
        -2.4143273085636148,
        -1.7266205534023515,
        -0.5954486537086946,
        -0.9540472755487891,
        -0.9021975781126058,
        -1.7470118072146712,
        0.059741350421635794,
        -0.6013345084932117,
        1.1451437720154956,
        0.9977686109719535,
        0.1584815886530091,
        -0.8298270433048894
      ],
      [
        0.5268870567869173,
        2.496896532312592,
        -0.4560324275921246,
        -0.5130022325354492,
        1.0868517267158126,
        0.7401733155880775,
        -1.5795099776800507,
        -1.3857915751802146,
        0.6724658578546986,
        0.22229263934671878,
        -1.706933791656827,
        0.4106659400011518,
        0.5783911552748502,
        -2.323352860458348,
        -2.1646461411408415,
        -1.3683848206651303
      ],
      [
        0.02726917478681766,
        -0.07784526674748633,
        -1.6650123892475073,
        0.4513113660590284,
        -0.3805803424198782,
        0.8074193029583311,
        0.3893807178869911,
        1.3229121478559447,
        -1.0112916461495014,
        -0.5271737933829997,
        0.4278808567745627,
        0.734401585961044,
        -0.6085817291618142,
        -0.4456863537237848,
        -0.48413922767234047,
        -0.46345273370113227
      ],
      [
        0.5758645293017461,
        -0.47743398025818046,
        0.22860139560645668,
        -0.5600890444979942,
        -2.056749038003658,
        -0.07649440501846735,
        -0.6702475838411597,
        0.23557338679673567,
        1.282941732532962,
        0.3549846188029054,
        1.4083510106910289,
        -0.06688454928087846,
        1.063241413883929,
        0.07765804819208638,
        -0.44904497770927315,
        0.5331066536088013
      ],
      [
        1.8469171815873433,
        0.5171028235153251,
        -0.32977037756906113,
        0.9535601899418865,
        -0.35150233958246435,
        -0.4877391499131218,
        -1.018721843727361,
        -0.961760392189883,
        -1.5988882717020456,
        0.16054223708338264,
        0.9880714837744481,
        0.8683769383607298,
        1.3165003617049305,
        1.1889954709831256,
        -0.25048310131849466,
        -0.5484523297392659
      ],
      [
        0.3700783770590499,
        -1.2234127185488253,
        -0.3106313950971777,
        -0.34560764332605587,
        1.1026592465835972,
        -1.819955756457401,
        0.6762461004038718,
        0.8712814168140687,
        -0.3814084450231275,
        0.6432585817262773,
        -0.28946533324930324,
        0.0482806372384868,
        1.016696414055443,
        0.6161112118182464,
        0.05082856424873381,
        -0.35719022041224563
      ],
      [
        0.52179744888357,
        -1.0541544086641288,
        0.1261591092516599,
        -1.2113456429930685,
        -1.733225613203783,
        2.1241711847829525,
        -1.0704410287778987,
        1.9516080286817197,
        1.1502791585667898,
        0.21592722167341605,
        -0.060804605065176695,
        -0.07931447695430412,
        -2.248312061805175,
        0.8533545253506215,
        0.5265249427364156,
        -0.011551635927477353
      ],
      [
        -0.6106333074215945,
        -0.4017228024801776,
        0.11118268683737949,
        1.599932308148958,
        -1.9576355446474696,
        -1.1946691233188955,
        -1.8089463653626643,
        -1.721727774646825,
        -0.44548931818045434,
        0.6986047305736993,
        -0.5648684280369948,
        0.9761342172912779,
        -0.8364330869863897,
        0.8162047512660653,
        -0.4921724378314042,
        0.7715996558741606
      ],
      [
        -0.011593398027949425,
        0.7488421844295375,
        -0.29619302057051866,
        -0.0832625178204241,
        0.4339411007452858,
        -0.795152113254553,
        -1.5517401800999264,
        1.509232418337441,
        0.7055232382458959,
        1.9700172712412316,
        -0.7457971170257641,
        -0.2489350993300853,
        -0.5401230754426011,
        -0.5140104580645106,
        -0.924554494812773,
        0.6189879064482928
      ],
      [
        -1.0372191611177837,
        -1.1206545270591166,
        0.16265795695055135,
        -0.5911727700831074,
        0.15572064381117046,
        -0.42985360525675526,
        0.03459068267789233,
        -0.7086327761635474,
        0.6875618076899095,
        -0.537547720434979,
        -0.3338868414420331,
        0.4366653177390211,
        -0.8010145529213775,
        -0.9414290653802496,
        0.24632011086933,
        0.7939746812834947
      ]
    ],
    "b1": [
      -0.35004684733050895,
      0.38414055945685627,
      0.09237711472783247,
      -0.29345051777341297,
      -0.1633241139758194,
      -0.3940007544359457,
      0.5398714786189499,
      -0.3941538466739313,
      -0.28590711941018865,
      -0.34530985708439577,
      0.3079051730392174,
      -0.42883659110624617,
      0.25935242766711625,
      -0.4960517492029628,
      -0.3147999041213639,
      -0.22774299287087074
    ],
    "w2": [
      [
        -1.3147629709165845,
        1.8084227046631578
      ],
      [
        -0.3618636648159171,
        -0.5656278427675016
      ],
      [
        -0.5899406630704145,
        -0.09665581063261118
      ],
      [
        -0.4243307905762395,
        -0.3608179195492276
      ],
      [
        -0.16591794431384305,
        0.3172225452604651
      ],
      [
        1.2039789929849247,
        0.216061663170188
      ],
      [
        0.2604551960035552,
        -0.5236604370724646
      ],
      [
        0.8065095589532685,
        -0.07381633338292323
      ],
      [
        0.17324355922792797,
        0.8309708458602614
      ],
      [
        0.1340309328876955,
        0.13319150488703166
      ],
      [
        -0.4081921886397452,
        -0.788739464189381
      ],
      [
        1.1664772732843736,
        -0.4709553957231759
      ],
      [
        -0.7158203260232296,
        0.7620307685521611
      ],
      [
        0.33410591186963484,
        1.1062970343056806
      ],
      [
        0.09782616528857126,
        0.3757380969311444
      ],
      [
        0.6866338811835626,
        1.1076702000279972
      ]
    ],
    "b2": [
      -0.08486595065017129,
      0.007591957003345182
    ]
  },
  "adapters": {
    "1": {
      "A1": [
        [
          1.7966898902091273,
          -1.4885518273811504
        ],
        [
          -0.7483117600338425,
          -0.13094551060322474
        ],
        [
          3.1715853512798504,
          0.0373470099459292
        ],
        [
          0.8039513759757143,
          -0.8470281945411131
        ],
        [
          -0.5523397979268933,
          2.2645166260384855
        ],
        [
          -0.004009267968581063,
          -0.058463478125711066
        ],
        [
          -0.5738997935547742,
          0.8843618515280981
        ],
        [
          -0.6632936607709776,
          0.21214000527662527
        ],
        [
          0.6200770014341133,
          -1.6202506535537513
        ],
        [
          -0.28538590701385713,
          -0.9082880655922114
        ]
      ],
      "B1": [
        [
          0.04736886264571042,
          -0.7298646002531021,
          0.07142227475133318,
          -1.1137664537940735,
          0.5347449464149112,
          2.063227895930119,
          0.9447426815850812,
          0.1627094933773426,
          -0.08095137140955105,
          -0.4469537466665626,
          -1.9726790124920262,
          -1.6930909450724057,
          0.04123050139558229,
          -3.441554258000489,
          -0.2759238148643389,
          0.7581718956560974
        ],
        [
          1.8914289818190884,
          -2.1027202409599313,
          -0.6078767257331863,
          -2.2541365158867057,
          0.4812602609548794,
          2.2442594595499576,
          0.750980277181026,
          -0.14977927367308355,
          -0.2539288714779431,
          1.974901242835281,
          0.8846566678768218,
          -0.06432144821872328,
          0.037709631893965284,
          -1.1964172634197603,
          -1.9537686115757307,
          1.348912780156213
        ]
      ],
      "A2": [
        [
          -0.9393684279638306,
          -0.30013594023302537
        ],
        [
          0.7638395649455662,
          -0.12349694139279725
        ],
        [
          0.3084668406315038,
          -0.3837516971998015
        ],
        [
          -1.5986945727406623,
          0.024154111405589686
        ],
        [
          -0.5992082622297521,
          -1.0138569130542294
        ],
        [
          -3.558170104617511,
          -0.2736960982634644
        ],
        [
          0.38125187098713453,
          1.3468117704502989
        ],
        [
          -0.3794259747427549,
          -0.621348402087279
        ],
        [
          -2.1546844077503864,
          0.8470085124758577
        ],
        [
          -1.5837963519975011,
          -0.8482161433649924
        ],
        [
          1.6357263491646934,
          1.6223308772312655
        ],
        [
          0.1275315039020004,
          1.5140910057162027
        ],
        [
          -3.39057148134662,
          -1.092394081687382
        ],
        [
          -0.29229449073659697,
          2.4482718364105076
        ],
        [
          1.3334250198136148,
          -0.87965722591023
        ],
        [
          -3.6138882740767455,
          0.6392727871797246
        ]
      ],
      "B2": [
        [
          2.2283833090176492,
          -0.38312435320654525
        ],
        [
          1.2532728243012008,
          0.6663061164196569
        ]
      ]
    },
    "2": {
      "A1": [
        [
          0.34987609800561165,
          -0.210228783957062
        ],
        [
          1.607001751070951,
          0.16432621123034993
        ],
        [
          0.23801575009374376,
          -1.0502003627077434
        ],
        [
          -1.8332630376253651,
          0.19420864456191309
        ],
        [
          0.006813636954824856,
          0.33633600466554286
        ],
        [
          1.4799242595548558,
          1.7724364201681928
        ],
        [
          -0.21815129616160917,
          0.07941143540064435
        ],
        [
          -0.02581441911674042,
          -0.3753404272988518
        ],
        [
          -0.26621541140790694,
          -0.9246727532846191
        ],
        [
          0.07814995540111622,
          0.4402570612203804
        ]
      ],
      "B1": [
        [
          -0.692319599915681,
          0.23800391678179475,
          -0.6369088944578183,
          -1.1092110967750544,
          -0.5730627919828518,
          -0.7159197874925866,
          0.9077474159467969,
          -0.16507535445598334,
          0.40983364425510377,
          0.020135448755988515,
          -0.9663235533500709,
          0.11281470969030288,
          -0.018022035062399383,
          0.3568376331973137,
          -0.713742450221953,
          1.8187766313398042
        ],
        [
          -0.23747588538238903,
          -0.3089988336382927,
          -1.5195240157279928,
          -0.23215422329444338,
          -0.9547638644493343,
          0.08820719767135582,
          -0.1821225434606146,
          0.18561716462644712,
          1.120715005340079,
          -0.1775807720006693,
          -0.6376976766429772,
          -0.9009727650396837,
          0.9064877310750885,
          0.9134235482859299,
          -0.039053215273815674,
          0.11428628314340444
        ]
      ],
      "A2": [
        [
          0.41151827413437153,
          -0.3333548286134555
        ],
        [
          -0.3832573001149858,
          0.12689442720584063
        ],
        [
          -0.09824884286272298,
          -0.1423236275975594
        ],
        [
          1.386890719109322,
          -0.6426125834388394
        ],
        [
          -1.326089896096224,
          0.7363583135623363
        ],
        [
          0.6050282509106318,
          0.18665658267168395
        ],
        [
          0.11906634097467206,
          -0.3464842391897518
        ],
        [
          0.3174064905256499,
          -0.8808982146432246
        ],
        [
          -0.3507556141547072,
          -0.7136544008665632
        ],
        [
          -0.7578611146206997,
          -0.0748352286004005
        ],
        [
          0.6031357942616757,
          0.06415085910295096
        ],
        [
          0.6522659866566357,
          0.3736022895066954
        ],
        [
          0.7656019129946143,
          -1.0052601993207397
        ],
        [
          -0.6810357130644016,
          -0.38406835283018925
        ],
        [
          0.5828582263283663,
          0.10482225520176544
        ],
        [
          -0.4090993129364879,
          0.013663183605213226
        ]
      ],
      "B2": [
        [
          -1.824946823530981,
          0.03368756489052524
        ],
        [
          0.3353156295917663,
          -0.20277313662498456
        ]
      ]
    },
    "3": {
      "A1": [
        [
          0.25303294932126597,
          0.020391046453347522
        ],
        [
          -0.20244496136155188,
          -1.0103071901473308
        ],
        [
          -0.45772518392676154,
          -0.555854865457794
        ],
        [
          -0.434665883273849,
          -1.1481468248248263
        ],
        [
          -0.7943542796249383,
          0.24341960736681753
        ],
        [
          -0.23403294812546244,
          0.7549379160074526
        ],
        [
          0.6662599654775819,
          -0.5474904372230747
        ],
        [
          -0.25953152086035297,
          0.6578814191572123
        ],
        [
          0.33888692710220486,
          -1.034411526893889
        ],
        [
          -0.11602334460467811,
          0.19630091734614544
        ]
      ],
      "B1": [
        [
          0.19858508232588049,
          0.0957732851821089,
          0.3206476006679532,
          0.7341870998332954,
          0.35537070739230026,
          -0.6060146873061649,
          -0.728592477418334,
          0.15195265088519466,
          -0.07834915387882424,
          0.1103080036974259,
          0.23028798312226406,
          0.49076765846129256,
          -0.974821910186151,
          -0.35751552341683257,
          0.5397640276527254,
          0.025433268394799903
        ],
        [
          0.520524439322787,
          0.17903700387405577,
          -0.4409743588184587,
          -0.8567893820120938,
          -0.33210296783894555,
          -0.6351239985716695,
          -0.27137382145054123,
          0.5231818004554676,
          -0.7309557824329685,
          -0.019132482435643597,
          -0.5033663830321213,
          -0.4693816189051862,
          -1.2222049668464279,
          -1.2318531891702422,
          0.7937642805229009,
          0.02141613469932018
        ]
      ],
      "A2": [
        [
          0.4046387152392305,
          0.17475557936808114
        ],
        [
          -0.6192831429982945,
          -0.5189007216112912
        ],
        [
          -1.062465290701009,
          -1.1631815040834865
        ],
        [
          -0.154499757823292,
          0.7376113673050801
        ],
        [
          0.3931904938664682,
          0.2443323171052327
        ],
        [
          -0.6428917830059983,
          1.3623323808960388
        ],
        [
          0.47783157196113163,
          -0.2675793869675909
        ],
        [
          -0.11104031613673612,
          -0.41074325064074096
        ],
        [
          -0.9970371724038569,
          1.2618781508425094
        ],
        [
          0.22500348731649902,
          0.44392047815734786
        ],
        [
          0.008804861226128573,
          0.8821613838266719
        ],
        [
          0.22798739962685924,
          -0.2880662677045798
        ],
        [
          0.10143600373702312,
          1.3297984705107122
        ],
        [
          0.09861672460123799,
          1.256168963613132
        ],
        [
          -0.34996932780813156,
          0.09861018736131628
        ],
        [
          0.051495328078775715,
          0.8778165718112894
        ]
      ],
      "B2": [
        [
          1.0257022640784044,
          0.8391214781309436
        ],
        [
          -1.726426232018538,
          0.04036516159025817
        ]
      ]
    },
    "4": {
      "A1": [
        [
          0.34784696979714586,
          -0.01861123967548611
        ],
        [
          -0.0701040062851294,
          -0.21471540155506744
        ],
        [
          0.20070036334560884,
          0.10096301075218833
        ],
        [
          -0.12489560282250699,
          0.25007817479685224
        ],
        [
          -0.45342159283412375,
          -0.5259451612187706
        ],
        [
          -0.5105408957185348,
          0.06385554084836538
        ],
        [
          0.02005505986081441,
          -0.3253653836023251
        ],
        [
          0.2878238882185265,
          -0.8085133586910739
        ],
        [
          -0.3938074599887031,
          0.04687503952443649
        ],
        [
          -0.13189969691898937,
          -0.17534606322939314
        ]
      ],
      "B1": [
        [
          0.09320495749556436,
          -0.052071169282932435,
          0.695253480937721,
          0.3288097661667326,
          0.646739680067593,
          -0.046677171591074,
          -0.01949932379452551,
          -0.3454955610937393,
          -0.130947564173389,
          -0.08916656828063459,
          0.0200333976203038,
          -0.2525703279533,
          0.2131521179868815,
          -0.018982999253008562,
          -0.4554762412054022,
          -0.5715738482872332
        ],
        [
          0.21146326356625775,
          -0.19951319738691176,
          -0.01825454097676354,
          1.1638897382085187,
          0.3300296464910456,
          -0.12571692016618147,
          -0.17809701520195828,
          -0.05334890910811664,
          0.1324078086713176,
          0.29903836914362114,
          0.14872170037516486,
          0.2164873151173848,
          -0.44924977540053046,
          -0.03207266342291638,
          -0.13024607258183202,
          -0.5037259840209265
        ]
      ],
      "A2": [
        [
          0.12414056767126878,
          0.20181852013437768
        ],
        [
          -0.43154516629854955,
          -0.3685211489379894
        ],
        [
          0.7038542268082573,
          0.4518273579831918
        ],
        [
          0.3801051983273277,
          -0.3771568139152945
        ],
        [
          0.7075535927041946,
          0.2634798476674992
        ],
        [
          -0.06022228566237166,
          -0.20582159542549677
        ],
        [
          0.5339789617133036,
          -0.06172590642458037
        ],
        [
          0.005313820696478257,
          0.3206268447679311
        ],
        [
          0.10915142145482246,
          0.15487044784483348
        ],
        [
          -0.46956401126035047,
          -0.06174267615358802
        ],
        [
          0.21413325781746706,
          -0.08409603648906573
        ],
        [
          -0.2868551365074073,
          0.5955428529325943
        ],
        [
          0.5032086856177007,
          -0.5670487497129101
        ],
        [
          -0.3388321017394911,
          -0.02346119061451784
        ],
        [
          -0.3782099167259091,
          -0.3041251335946719
        ],
        [
          0.16363935010547329,
          0.30513663183498513
        ]
      ],
      "B2": [
        [
          -0.4524532743627314,
          -0.553796412267852
        ],
        [
          0.0703846144755896,
          -0.15350689348920615
        ]
      ]
    },
    "5": {
      "A1": [
        [
          -0.6917712412375306,
          0.04442907586429132
        ],
        [
          1.2294009200756362,
          -0.84872647060613
        ],
        [
          -0.22118987248796865,
          -0.6107664159213169
        ],
        [
          -0.20987637004935858,
          -0.821779871059253
        ],
        [
          0.6880700203372309,
          0.47289777600374117
        ],
        [
          0.598078434830792,
          0.43519815826891245
        ],
        [
          0.6832394175835124,
          0.9740287324805096
        ],
        [
          -0.660191090225275,
          -0.23362737924415147
        ],
        [
          -1.28933908321145,
          -1.3672122498588384
        ],
        [
          0.05409767313995891,
          0.46632199476955793
        ]
      ],
      "B1": [
        [
          0.18526063837868656,
          -0.12491132190483135,
          0.25909121777389416,
          -0.15235038859730826,
          0.46257518718495166,
          1.5851410440845926,
          0.47670141158364643,
          0.1520094648818299,
          0.21109136061125042,
          0.7247457528124941,
          -0.09782344639373138,
          -0.1870369892655852,
          1.044195382215506,
          -0.031706319764648,
          -0.5141034683306727,
          0.15679881845346894
        ],
        [
          0.25438528403088234,
          -0.21756594839983084,
          0.18272608929695636,
          0.8962396710943058,
          -0.18005562855029725,
          0.6237855106942549,
          0.14787873770374618,
          1.3273930318927187,
          0.6820805491125939,
          0.8891481059351785,
          -1.9225035767760583,
          -0.5794413040233645,
          -0.7481599696824695,
          1.1951842032789581,
          -0.41057033598132764,
          -0.10218665153766798
        ]
      ],
      "A2": [
        [
          -0.21720867167302452,
          0.42582908557361787
        ],
        [
          -0.19589194130213394,
          0.568574782309889
        ],
        [
          0.18110740155918761,
          1.2808718068476066
        ],
        [
          -1.3149021424827876,
          -0.8460007053300014
        ],
        [
          0.207275352034705,
          -0.270742799244062
        ],
        [
          0.4960295931893676,
          0.08814392110131433
        ],
        [
          0.727518711873706,
          -0.23543112030537827
        ],
        [
          -0.10888067637860722,
          -1.4518519665349585
        ],
        [
          0.34343715154260535,
          0.1328631510191858
        ],
        [
          0.9024098164228335,
          -0.04960738858733725
        ],
        [
          -0.1313737354006594,
          1.1195196745902996
        ],
        [
          -0.6745042819854332,
          1.1148537528468092
        ],
        [
          -0.840339846567037,
          0.08153461128717299
        ],
        [
          0.15525425259823922,
          -0.7666076764755494
        ],
        [
          -0.028661544189726173,
          0.43200456988511315
        ],
        [
          0.19569678640935173,
          0.26172669202915005
        ]
      ],
      "B2": [
        [
          -0.08666580962062667,
          -0.6774747117402582
        ],
        [
          -1.1302897699919774,
          0.5698059972762501
        ]
      ]
    },
    "6": {
      "A1": [
        [
          -0.637218657893458,
          0.8529184505935006
        ],
        [
          -0.013630182527888397,
          0.4473096499139403
        ],
        [
          0.28848695692484183,
          -0.9344735217983188
        ],
        [
          0.5113227402538555,
          -1.203104446123816
        ],
        [
          -0.5784501997116681,
          -0.8393483913677736
        ],
        [
          -1.8467010826595125,
          -0.3287477194853089
        ],
        [
          -0.5550123333524675,
          0.3683056354995535
        ],
        [
          -0.341226294911497,
          0.027962852825726955
        ],
        [
          0.6277270233920458,
          1.1201335974721431
        ],
        [
          -0.09870545046898498,
          0.31252516889310294
        ]
      ],
      "B1": [
        [
          -0.13322005366281997,
          -0.5922144273211749,
          0.619658114365329,
          -0.10344372816178769,
          0.3958219519021876,
          0.3329101007232218,
          0.7690029838925099,
          1.0616447516443397,
          1.3143405642558004,
          -0.6941360106699979,
          -1.1459772209265542,
          -0.7859319399785631,
          -0.12062450670589421,
          -0.9124947703289906,
          0.4051902685901465,
          -0.6506204515488556
        ],
        [
          -0.8042095061963086,
          -0.2681537546185392,
          -0.05871113171096289,
          -0.012160623220148072,
          0.24084410257862968,
          0.34522186116190545,
          -0.3723793826707638,
          -0.26572092984771106,
          0.538444910827078,
          0.17815882428700408,
          0.36749928755280703,
          1.2629093719826254,
          -0.9128317640542217,
          0.9784007441129606,
          0.43208089281583617,
          -0.8577555852828919
        ]
      ],
      "A2": [
        [
          -0.8402126730896579,
          -0.3878713940954844
        ],
        [
          0.2899475448071374,
          1.0347920987427992
        ],
        [
          0.46865576294270384,
          -0.3254982854246422
        ],
        [
          -0.6062724024825725,
          -0.1306337218574675
        ],
        [
          -0.35219155972386446,
          -0.5245778683519986
        ],
        [
          -0.5188111045454191,
          -0.28481436885984013
        ],
        [
          -0.3413653980684488,
          -0.06047482646315809
        ],
        [
          -0.26810353749718235,
          0.2865883167567917
        ],
        [
          -0.23178050804616054,
          1.6834205098016777
        ],
        [
          0.2688628642316353,
          0.6324253214188215
        ],
        [
          0.39506973775610976,
          -0.03772383279885011
        ],
        [
          0.6480809136784116,
          -0.6328616568143701
        ],
        [
          -0.5816236517223232,
          -1.2638337722277362
        ],
        [
          2.235672774264526,
          -1.1190467446072445
        ],
        [
          -0.06079183244297694,
          -0.49051688760555867
        ],
        [
          -0.2648521838962441,
          -0.0679438191030355
        ]
      ],
      "B2": [
        [
          1.1155969113017654,
          0.0878409731759004
        ],
        [
          -0.5940477467134935,
          -0.22888006926888846
        ]
      ]
    },
    "7": {
      "A1": [
        [
          0.24295823182831922,
          -0.26131800788045745
        ],
        [
          0.5299739384359711,
          -0.052269832238333896
        ],
        [
          -0.6518068804020842,
          0.02952969625090292
        ],
        [
          -0.907370073246208,
          -0.9350491766953022
        ],
        [
          -0.5818851948689576,
          0.43291761127618084
        ],
        [
          -0.25369333547933387,
          0.6950488587132643
        ],
        [
          0.31634487962969005,
          0.3550342285022905
        ],
        [
          -0.7301610346880747,
          0.5771524438418667
        ],
        [
          -0.22669169218950805,
          -0.8991517937207849
        ],
        [
          -0.08083585733933567,
          0.43653926349631306
        ]
      ],
      "B1": [
        [
          -0.43882016142746105,
          -0.6348797480189291,
          -0.29581378493042393,
          -0.7536490252035835,
          -0.8193575146062568,
          -0.23560200490428918,
          -0.2059509547902091,
          0.3378891299007172,
          -0.751307269333437,
          -0.5645768773967269,
          -0.13818143504638808,
          0.14142666901952478,
          -0.13020729884930793,
          0.3190640950092035,
          0.2264420214430746,
          -0.13408557412687377
        ],
        [
          -0.36745823052866555,
          -0.48569894055408336,
          -0.5996000013457361,
          -0.7387580143493847,
          -0.4459203193646576,
          -0.6506401350140686,
          -0.676372078039482,
          0.3705279776966024,
          0.13684466319734506,
          -0.21518314422167084,
          -0.18143956604679962,
          1.2448809798303415,
          -0.03849883577979961,
          1.0088129332610674,
          -0.7534055873402328,
          0.6916008822371124
        ]
      ],
      "A2": [
        [
          0.34240762124120144,
          0.125363378064317
        ],
        [
          -0.22604656941094736,
          0.4340770473468102
        ],
        [
          -0.6985267026374619,
          0.06275283192147
        ],
        [
          0.1942806227363259,
          1.1023076771541434
        ],
        [
          -0.1941882662837808,
          -1.179984729350424
        ],
        [
          -1.165279391317612,
          0.2675515783930397
        ],
        [
          -0.17525200629663581,
          -0.10164710467807633
        ],
        [
          0.32375587823817403,
          0.4094064249326761
        ],
        [
          0.6137541280357377,
          1.1355350825021673
        ],
        [
          -0.032808054413695324,
          -0.36747857987758104
        ],
        [
          -0.2181915282613377,
          0.1015950925688243
        ],
        [
          -0.48901385148861337,
          -0.01592130702746037
        ],
        [
          -0.3395692872456477,
          -0.2959806444044446
        ],
        [
          0.9886675000672785,
          0.5233291978447624
        ],
        [
          -0.4347464724803575,
          -0.11037172957761912
        ],
        [
          -0.21894590508790907,
          0.1710250676051515
        ]
      ],
      "B2": [
        [
          0.7360434603263094,
          -0.11889129291128239
        ],
        [
          -1.0140509400781865,
          -0.9937601237526558
        ]
      ]
    },
    "8": {
      "A1": [
        [
          -0.5977130434516396,
          0.506079185662021
        ],
        [
          0.6553690983779237,
          -0.08235447491323221
        ],
        [
          0.40795737665236315,
          0.8830994159861354
        ],
        [
          0.8050273116772078,
          0.5993515137341331
        ],
        [
          -0.5016177351293475,
          -0.5089357480333954
        ],
        [
          -0.5472499628937447,
          0.8262771551739502
        ],
        [
          -1.038278402502397,
          0.21823044755887067
        ],
        [
          0.47808160302826924,
          -1.1936071180744052
        ],
        [
          -1.1692865910877668,
          0.2978798301785295
        ],
        [
          -0.22112658698166787,
          -1.619387256440991
        ]
      ],
      "B1": [
        [
          0.1810429754285307,
          0.9993168492187655,
          -0.5530042735906526,
          0.11224783938754776,
          0.2882262730969226,
          -1.29911969989227,
          0.526617191517828,
          -0.5339153840799133,
          -0.24251162176166594,
          -0.1825611089710837,
          0.09001289432668218,
          -0.3658670676794281,
          0.8916561957537237,
          -0.41762178708616815,
          0.7561281385534119,
          -0.5175956633552489
        ],
        [
          0.4720758268544645,
          -0.5086701604674889,
          -0.7521919541979423,
          0.3341233449939639,
          -0.881066178965649,
          -0.32744308184814414,
          0.5370724297581015,
          -0.8494888060704505,
          0.7083792177006893,
          0.3532967284006165,
          1.2146555763990134,
          -0.5710829541870541,
          -0.9610103226460028,
          -0.16288314762462638,
          -0.543017562497348,
          0.8935079313343133
        ]
      ],
      "A2": [
        [
          0.6553591154277437,
          -0.9111813129717704
        ],
        [
          0.4875599026489702,
          -0.8510521224785216
        ],
        [
          0.9334348671110169,
          -0.08662397288772246
        ],
        [
          -0.5507593650502975,
          0.503493041471924
        ],
        [
          0.8043790868030957,
          -0.28558727772439557
        ],
        [
          0.5019803515330393,
          -0.035953634747118865
        ],
        [
          0.4967405468070877,
          0.8394655318720232
        ],
        [
          -0.2274225837293869,
          -1.002848167788771
        ],
        [
          -0.15067524149233255,
          1.1053945021385392
        ],
        [
          0.6395844008832465,
          0.6375448812770067
        ],
        [
          -0.5325810647899489,
          -0.7922131863655618
        ],
        [
          1.2205010588422374,
          -0.6304598432022099
        ],
        [
          -0.09581969245734244,
          0.11765446987041091
        ],
        [
          0.3386536607547178,
          -0.0011493520554361307
        ],
        [
          0.8980903888167034,
          -0.7463769790137933
        ],
        [
          1.224220161058176,
          -0.6859344646425048
        ]
      ],
      "B2": [
        [
          0.8168774187520826,
          -0.1466802547688542
        ],
        [
          -0.4247826576134122,
          1.144378605509403
        ]
      ]
    },
    "9": {
      "A1": [
        [
          -0.693532203292162,
          0.7440875613715221
        ],
        [
          -0.2538540832226509,
          -0.09521756646358225
        ],
        [
          0.647164471522611,
          -0.14572350878044266
        ],
        [
          -0.26429985301191833,
          -0.9877580755520838
        ],
        [
          0.39642790966398367,
          1.1700774725479703
        ],
        [
          0.26768959172515,
          1.0012737710751904
        ],
        [
          2.5607239573940466,
          -0.1307763852237066
        ],
        [
          0.28271852840793626,
          -1.1098349591579963
        ],
        [
          0.46361026728937316,
          -1.6215029239879464
        ],
        [
          1.3638107852136248,
          0.3583415475346689
        ]
      ],
      "B1": [
        [
          0.4874005878009041,
          -0.295632814908348,
          -0.7747561470841074,
          0.4959023287316432,
          -0.8864222780190122,
          0.46500336328059844,
          -0.15105613467355017,
          -0.17141334094071925,
          0.7519622562024234,
          0.6901733978315411,
          0.006667901717892905,
          0.49773270890081195,
          0.5716280980665097,
          1.1438004308206366,
          -0.15570098624974388,
          -0.3748144335562609
        ],
        [
          0.07228235087843558,
          -0.6326680411287764,
          -0.29010515018229727,
          -0.9768672607955481,
          0.7448101353192398,
          1.1020545614873023,
          1.060634101131522,
          0.7264645315943283,
          -0.2042786400126296,
          -0.8651359516397781,
          -0.605458739743371,
          0.7514190065919903,
          -0.8687198521831639,
          0.9162643532797461,
          0.721809274537515,
          0.804694868147465
        ]
      ],
      "A2": [
        [
          0.36237986072933837,
          -0.16081139574855247
        ],
        [
          -0.25318647039298037,
          -0.09213891762349521
        ],
        [
          0.05763943386595863,
          0.34482643787751305
        ],
        [
          0.42371082208510885,
          0.41842737501490196
        ],
        [
          0.693598081065332,
          0.5049284994988716
        ],
        [
          -0.032650507224410666,
          1.8042891689642226
        ],
        [
          1.485421562027784,
          -0.0189311013386187
        ],
        [
          0.7465632964676644,
          -0.4680629328567292
        ],
        [
          -0.05707131796391208,
          -0.5180102090263462
        ],
        [
          -0.3903018139650049,
          -0.007208406118684256
        ],
        [
          -0.5740815243708222,
          0.2688665696370455
        ],
        [
          0.40425928023876306,
          0.11973264198579749
        ],
        [
          -0.6544042801694435,
          0.09938107703207243
        ],
        [
          1.9025681313935117,
          -0.19594796866864347
        ],
        [
          -0.3420748223079578,
          0.016433338981220753
        ],
        [
          1.1194392651012797,
          0.6726606038840102
        ]
      ],
      "B2": [
        [
          2.0672682096293173,
          -0.2604043096410014
        ],
        [
          -0.35716162747938196,
          -1.6140102198944022
        ]
      ]
    }
  },
  "currentLevel": 9,
  "rank": 2
}