{
  "version": 2,
  "base": {
    "w1": [
      [
        0.37202798054506514,
        0.8979805881449647,
        -0.7427584990757944,
        -0.2691351686820471,
        -0.09389343967278647,
        1.2027161512079674,
        -2.4168664088203,
        -0.7805676978442918,
        0.7196737790594935,
        0.6356929691775313,
        0.5896632682124083,
        1.1682689694090662,
        0.05333822961005723,
        -1.3798822686525418,
        -0.8244530953807108,
        -0.5391889390041541
      ],
      [
        0.10399061758757913,
        0.933362759585624,
        -0.7822389133965949,
        0.12734453733135734,
        0.10482322965347284,
        1.392217567439835,
        0.8876214505085471,
        -0.023193301764144664,
        0.2640693867528723,
        -0.6352354025026263,
        0.716132177999427,
        -0.6926023353072744,
        -0.5810788299113888,
        0.6339595479633965,
        -0.44172314137959207,
        1.116388901994255
      ],
      [
        0.5090990827062402,
        -0.6435429415512973,
        0.6080543650880155,
        -1.6039670996317335,
        -0.6007685255322366,
        0.2514566242428035,
        -0.10279469203146278,
        -0.7718512335779407,
        0.7571550772905986,
        0.04906097507883607,
        -0.6500315726328946,
        1.1993781012198506,
        1.869653553236574,
        -0.005906371714997319,
        0.6814149146384665,
        0.7741522755492911
      ],
      [
        -0.7724558872128998,
        -1.0596709051731352,
        -0.9778142872097534,
        0.4767117071540032,
        -1.723537544542335,
        0.5031943837712443,
        -0.7860293645547164,
        -1.2671848460886928,
        -0.14879789667439935,
        0.2614527025913447,
        -0.5647636911561337,
        0.4211348060830693,
        -0.4222143159394515,
        0.6995033887071169,
        -0.25789053944038165,
        -0.20245964117960635
      ],
      [
        1.0712128083099413,
        -0.81050413683879,
        -0.5572916332283872,
        -0.0885881088452442,
        0.39781423819969236,
        1.271820286755598,
        -0.5159780228367596,
        -0.8812343515793797,
        -0.1056966028646899,
        -0.38784412158711584,
        0.7649498106562088,
        0.34070050230556936,
        0.13322512458986108,
        0.05725551949989517,
        1.1570342504186772,
        -0.8457706942129992
      ],
      [
        -0.03517972492735111,
        0.7829711788252824,
        -0.7532380379816256,
        -0.6279101936522826,
        -0.8338771701855247,
        -0.1255590848611726,
        -0.6733183276245566,
        0.41593950550371445,
        -1.3952912310369534,
        1.4507479193212018,
        1.5090570205422142,
        0.8460740590087098,
        0.700442904446201,
        -0.8309160819092621,
        0.7549349179156172,
        0.15647949851984905
      ],
      [
        0.38712265103740595,
        1.131470283995341,
        0.18704882019071176,
        0.2344775356069187,
        -0.22126777550373575,
        0.5336606972504612,
        -1.6386204368537338,
        -0.1015413413999495,
        1.140412487295533,
        -0.3308394429628992,
        2.405815736200663,
        -0.36653970563925514,
        1.063142259363894,
        -0.07758290610020203,
        0.9295387425470623,
        -1.9875259752197265
      ],
      [
        1.1553883623261407,
        0.4653107700552157,
        -2.323472658577413,
        0.5963006099713973,
        0.8926071703241988,
        -0.38339991304230253,
        0.4775173123263377,
        0.027570890770175882,
        -0.5756176798699663,
        -0.19622719004183595,
        -1.1702033161469276,
        0.5227202915005114,
        0.3950591967387812,
        -0.8154366602838211,
        -0.041117559331707125,
        0.18014553863017652
      ],
      [
        0.36794067510401596,
        -0.10773909561151032,
        0.3458259496774175,
        -0.7822557733296945,
        -0.023900148952753986,
        -0.8055933360957335,
        -1.4293258060861087,
        0.6381788996674178,
        -0.32414964172768973,
        -0.24805947559379074,
        -1.1624965573222008,
        -0.15994165796365334,
        -2.170244819993408,
        -1.0042208936387786,
        0.7241848121796445,
        0.13506859527934842
      ],
      [
        -0.4185911609945111,
        -0.5207173318466691,
        -0.18722901704471268,
        -0.48043003990840494,
        0.8076758239236478,
        -0.43265933088508757,
        0.8417559755640924,
        -0.25521864031457814,
        0.37611362390184405,
        -1.1842606896037555,
        0.28128434400511115,
        -2.969511349693941,
        0.6237460261383416,
        0.7887244124780272,
        -0.5052255602167164,
        -0.5057272107021127
      ]
    ],
    "b1": [
      -0.06727239991155941,
      0.1716847652738595,
      0.2719376806462829,
      -0.1157737959301751,
      -0.1558838115116706,
      0.010710044594796988,
      0.05933784157385357,
      0.4003019456428568,
      0.0767907126013538,
      -0.06991992677785842,
      0.15714581707383116,
      -0.20586090042099772,
      0.2027626642430339,
      -0.04360237000524433,
      -0.4031553248376483,
      0.04548855903482804
    ],
    "w2": [
      [
        0.563159767324193,
        -0.5697264513465649
      ],
      [
        0.6016872478473999,
        -0.006047201751795274
      ],
      [
        0.12146508108556474,
        -0.5232646852813081
      ],
      [
        -0.31929682560330697,
        -0.2764226764903088
      ],
      [
        1.1740361668950385,
        -0.4821745165169684
      ],
      [
        -0.5480157445024108,
        -0.436000643027889
      ],
      [
        -0.11485210664333723,
        0.9546378684403174
      ],
      [
        0.7184712533504276,
        0.5565733759309084
      ],
      [
        0.16932850445429837,
        -1.0806194026089473
      ],
      [
        0.5721659727750308,
        -0.11865764315003186
      ],
      [
        -0.048876561473437045,
        0.08989080057242142
      ],
      [
        -0.38195127897404374,
        0.306605970073049
      ],
      [
        0.3050398645389837,
        0.5881763543081511
      ],
      [
        0.3984956600045015,
        -0.008914833193228857
      ],
      [
        0.05970578344822636,
        0.34059164871557346
      ],
      [
        -0.3489083184002368,
        -0.22035741800600142
      ]
    ],
    "b2": [
      -0.3275960429940286,
      0.21119303162859668
    ]
  },
  "adapters": {
    "1": {
      "A1": [
        [
          0.021705579396751926,
          -0.2258655812697315,
          0.5466104792187937,
          -0.7479413655892607
        ],
        [
          0.19825722752035538,
          0.6086551928237957,
          -0.202035367956847,
          0.026750122356051186
        ],
        [
          -0.2587097103529702,
          0.7418900851021818,
          -1.7327000217954995,
          0.2115679513265545
        ],
        [
          -1.0537305773885282,
          -0.6135094742913608,
          -0.8741846136923505,
          0.5151053772755825
        ],
        [
          1.8976248863232479,
          0.12854672463162545,
          -1.5606241954092792,
          -0.05420703960907863
        ],
        [
          -1.7125610871354235,
          0.1751986381812098,
          0.5205037178782823,
          -0.6052988454730045
        ],
        [
          1.1622746800928978,
          -0.6832894740793122,
          1.5415180580599515,
          0.034476041411826204
        ],
        [
          0.1678626872569748,
          -1.4111767983268348,
          0.4865439111722369,
          -0.0970317159529321
        ],
        [
          -0.6514131257190966,
          1.1607189490874612,
          -0.5602758321520741,
          -0.9635154469822805
        ],
        [
          1.6491409464650035,
          -0.8202039041055827,
          0.14300382737085632,
          0.10735252223957467
        ]
      ],
      "B1": [
        [
          -0.5475880415831802,
          1.261538468456463,
          0.27291504558125895,
          -0.1237703814777292,
          1.5320246901271382,
          0.6145220717573047,
          0.09684623292161998,
          2.2664468616163225,
          -0.5462032882605681,
          -2.0614552365904433,
          -1.0095911222867922,
          0.9861444630561255,
          -0.4762137954344102,
          0.49822161982055774,
          0.7389562999845477,
          0.1974436051708357
        ],
        [
          0.9534518478699854,
          -1.2283030932651475,
          -0.5539514119628197,
          0.14270488959424757,
          -0.7728343911280452,
          0.5871472451745617,
          -0.5446693937878931,
          0.18703261127098633,
          0.3826113543205482,
          0.764273299924099,
          -0.6724413281184329,
          1.2683738488550131,
          -0.8036953629572571,
          -0.5063065239242779,
          -0.7853288966733027,
          -1.3320703077144265
        ],
        [
          0.3746502796206263,
          -0.7987363506676106,
          1.2487728945450092,
          0.10106661032970937,
          1.756936645804199,
          -0.8734590129537403,
          -0.44073105755256947,
          0.03984562635783778,
          0.5496545979451706,
          -0.6597534131270534,
          0.10096527447539484,
          -1.3047682642440506,
          0.10310847549579481,
          1.0641784632407503,
          1.8208101691437037,
          -0.8717177898688774
        ],
        [
          0.6503047447343334,
          -1.1462825791840279,
          2.0756264110173617,
          1.0642144595925271,
          0.0003459315350583369,
          1.202198618459621,
          -0.9556698207820724,
          -1.7828936585507076,
          -1.2188830142424725,
          0.09983156311101198,
          -0.47702152207500986,
          0.10277762275703851,
          2.8025646089543956,
          -0.7154100470246315,
          -0.17246775864408795,
          -0.31587437520676254
        ]
      ],
      "A2": [
        [
          -2.2389159143728343,
          1.0323755167801532,
          1.5126498234406784,
          0.04137987421148679
        ],
        [
          0.9614597202762197,
          0.4305580101483786,
          -1.150570279076802,
          -1.2593420245174383
        ],
        [
          0.48177842023977435,
          0.07497107813677417,
          -0.6085650981279344,
          -2.7945073074834332
        ],
        [
          -1.5515233407754798,
          -0.9699705631717638,
          0.9672468826874167,
          -1.8730154311800087
        ],
        [
          -0.6865614569112526,
          1.1543471029936048,
          -1.0670842801949783,
          0.49690816064311005
        ],
        [
          0.5984716338845725,
          1.6822274742510632,
          0.6810199507558291,
          -0.13095781161981443
        ],
        [
          0.578462478481734,
          -0.10881094211039923,
          -0.376730671575324,
          -0.8201293125155549
        ],
        [
          -0.4094724996931327,
          0.332490283912759,
          0.2034247636024261,
          -1.327042501085774
        ],
        [
          -0.10923058434535861,
          0.18498355163928248,
          0.5835375042498843,
          2.1893345613622572
        ],
        [
          0.0911413965435844,
          -0.8984513321682067,
          1.6546104370898806,
          -0.45759694223411285
        ],
        [
          -0.3350374259742055,
          -0.7286218020183708,
          -0.3014859664716823,
          -0.042798935886460415
        ],
        [
          1.736877731383713,
          0.8242956342236184,
          0.07945060681602664,
          -0.2549186390050937
        ],
        [
          -0.7981342876518294,
          0.1488243002724907,
          0.8287253402565289,
          -0.24916763713401474
        ],
        [
          -0.2732415765864844,
          -0.23067940522551675,
          0.17068038882952055,
          -0.3031685551274298
        ],
        [
          0.2888973397655547,
          1.8939514816654046,
          1.3376326980904751,
          -1.4836620388820703
        ],
        [
          1.5202819627060207,
          1.3166473872373825,
          -1.6816690769075306,
          1.0299033056314013
        ]
      ],
      "B2": [
        [
          -0.76725255218127,
          -0.2003067193504364
        ],
        [
          0.293612573647504,
          -1.1800741728787483
        ],
        [
          -0.9472086042236069,
          1.5428773399466877
        ],
        [
          0.6374446427141176,
          0.5835035588412935
        ]
      ]
    },
    "2": {
      "A1": [
        [
          0.06191495069206164,
          -0.45447531715600153,
          -0.40721793087654307,
          0.3254999167872198
        ],
        [
          -0.22608635696762877,
          -0.3053562141381692,
          0.03513093041601848,
          -0.4618799874462205
        ],
        [
          0.7115586601336062,
          0.34057248014815467,
          -0.440078459719886,
          0.3129749335751743
        ],
        [
          -0.33162137910904643,
          0.2867522281659525,
          0.4126299468882536,
          -0.20635109175806632
        ],
        [
          0.22415723876256,
          -1.0066728811565437,
          0.36354452291082123,
          0.35315043930520534
        ],
        [
          -0.5481595639813911,
          0.7788270267945242,
          -0.3381824873959985,
          0.10559959836841493
        ],
        [
          -0.6409676026730635,
          0.1205841233957174,
          -1.2168461364159449,
          -0.2612003693786825
        ],
        [
          0.16146236479765375,
          0.11317639837871521,
          -0.9686701489535309,
          -0.35754463596166336
        ],
        [
          0.323278695657351,
          -0.25177253659539545,
          -0.3209020291566463,
          0.37727973201666215
        ],
        [
          -0.7345205865399167,
          0.1517832355001494,
          -0.07509052042251965,
          0.7154665960495623
        ]
      ],
      "B1": [
        [
          -0.5292298284879855,
          -0.756609824015949,
          0.49333325982915516,
          -0.5505091402012338,
          0.20205370391722471,
          0.21609468616174435,
          0.4352017848041131,
          -0.3052563889734437,
          0.9879826891365121,
          0.11994039639993807,
          -0.9063362190846735,
          -0.09751065640763015,
          1.1653097235365109,
          0.26280878821949394,
          0.031634295369671724,
          -0.044511032319114345
        ],
        [
          -0.2862183303676861,
          0.234461958983107,
          -0.10660958602385665,
          0.15447909961695694,
          0.1835089444101074,
          0.5607255078322354,
          -0.13499652802248077,
          0.05199845452825001,
          -0.2710253781993241,
          0.37778422439293907,
          -0.3680558711359093,
          0.07265154195121229,
          0.3063249960544394,
          0.3687330837529669,
          0.04761837610654175,
          -0.02289779401559983
        ],
        [
          0.02319320422689801,
          -0.2720686378285744,
          0.5604368093710986,
          0.03414049614576974,
          -0.45128678797102456,
          0.5644327345424422,
          0.2166976260429736,
          -0.3413830475665242,
          -0.5051692144815485,
          0.08497890074713678,
          -0.6382917600983736,
          0.11076686181469221,
          0.1192876607488494,
          -0.14534555054109793,
          0.04703576828321316,
          1.08055903511673
        ],
        [
          0.0024079774863986474,
          -0.43556309137030114,
          -0.4074867371191345,
          0.22855296519202256,
          -0.34508437303029466,
          -0.9812292109418215,
          0.5124973412473094,
          0.38368176223183365,
          -0.5041837138109472,
          -0.20264380150113473,
          -0.17162434249805503,
          0.44821308670988314,
          -0.4300744261615275,
          -0.04059452896529795,
          -0.3470708207106079,
          0.4878796015024355
        ]
      ],
      "A2": [
        [
          0.6056407928331622,
          0.19119337165830752,
          0.5610857393710719,
          0.04905514667420038
        ],
        [
          0.3677193560014139,
          0.849719329909888,
          -0.2513477382234579,
          -0.7506703902871334
        ],
        [
          0.2046268892314604,
          -0.3433695363130621,
          -0.24889740079778241,
          0.233292532581869
        ],
        [
          0.17352001755313437,
          0.04609001099205052,
          0.905237384598206,
          -0.9322119463459214
        ],
        [
          -0.06631026553221209,
          0.2026323437301327,
          -0.5630919018919138,
          -0.12648722596999443
        ],
        [
          0.4040128284964709,
          0.25285498997128464,
          -0.2834628640984111,
          0.0981813787519698
        ],
        [
          0.5977723867695796,
          -0.21390470085432683,
          -0.2839159246836372,
          -1.0632515928862045
        ],
        [
          -0.4421545132486502,
          -0.2795490134152558,
          0.1109431422206635,
          -0.54249992477702
        ],
        [
          -0.881765714618531,
          0.3047311412629582,
          -1.1810401068832483,
          -0.3392703982700942
        ],
        [
          0.47936247384771785,
          1.0753829059373923,
          0.4511870888826682,
          0.5183419210579817
        ],
        [
          0.4045765819800441,
          -0.06593472293898026,
          0.535151287685305,
          -0.5866385823193788
        ],
        [
          -0.2619747076071356,
          -0.7147513285439736,
          0.02182818992829877,
          0.5772232317975453
        ],
        [
          -0.03660598760162475,
          -0.010186773090549514,
          -0.2073371418758866,
          0.10024272179953193
        ],
        [
          0.8265076101661277,
          -0.02809382786005299,
          -0.839681538780678,
          -0.3737491134377121
        ],
        [
          0.6210803472126322,
          0.3671957540439363,
          0.35393913781175895,
          0.7741931693283975
        ],
        [
          -0.20916375265786072,
          -0.13287744812535157,
          0.4719904935647251,
          0.5616154966847805
        ]
      ],
      "B2": [
        [
          0.08020400569114573,
          0.40387289511697544
        ],
        [
          0.5589655903483343,
          0.9693368802596439
        ],
        [
          0.6340623171115297,
          1.0155546292470354
        ],
        [
          -1.0346961730076247,
          0.8506863938724696
        ]
      ]
    },
    "3": {
      "A1": [
        [
          0.33733239796688813,
          0.26405837077267685,
          -0.19517920877071274,
          -0.37453624706789224
        ],
        [
          -0.09813226330360049,
          -0.39356056631315506,
          -0.3184279438601106,
          -0.2188108756578001
        ],
        [
          -0.44345322583629443,
          0.09246373037352212,
          -0.28229027851420324,
          -0.2292060753624254
        ],
        [
          -0.0007918034803823222,
          -0.22384778286578522,
          0.026078130150170954,
          -0.009652064929382073
        ],
        [
          0.051306455399154786,
          -0.1705272430192697,
          0.3978730476321798,
          0.012537690858378503
        ],
        [
          0.0016663135308903957,
          0.4599347273636586,
          0.12990035033287517,
          -0.37735221326807294
        ],
        [
          0.14146998174951694,
          0.5280506436905934,
          0.12432999529340191,
          -0.35265887926383654
        ],
        [
          -0.19455465039240735,
          -0.022370767061776688,
          0.23835668808015173,
          -0.163507525491453
        ],
        [
          0.2266931797668981,
          -0.6766829170145485,
          -0.06076020317437695,
          0.4948589933254792
        ],
        [
          -0.08251631260653305,
          -0.690746450084967,
          -0.06074757125066333,
          -0.20026376565433388
        ]
      ],
      "B1": [
        [
          -0.14931559488453136,
          0.31896246881029455,
          0.6268738306087311,
          -0.46785176381530663,
          -0.002997881470394849,
          0.17755843688066691,
          -0.10296583205651948,
          0.13919132957182234,
          0.06268943523077407,
          0.2782644395345157,
          -0.18698144004050635,
          0.430396855505969,
          0.1896292948133175,
          -0.2506367691611941,
          0.34653040841934885,
          -0.05895974668447581
        ],
        [
          -0.07022067744421584,
          0.4103282992997785,
          0.21115271030563368,
          0.4753206071683564,
          0.10952183310714418,
          -0.054385968623134585,
          -0.4683972610008137,
          0.4974782384519342,
          0.6075680748321836,
          0.4937145806044191,
          0.017718431632464327,
          -0.09042472256922306,
          -0.2505036789667726,
          0.17696690484461294,
          -0.15448537489637923,
          0.23834065601589047
        ],
        [
          0.04540170111490198,
          0.11943228533198459,
          -0.3759309771844002,
          -0.41378253489300015,
          -0.23323166326632275,
          -0.1837331373522862,
          0.4328184056006601,
          0.23906255292302644,
          -0.25299257132467995,
          -0.0539757199625998,
          0.1154814426275677,
          -0.006732684880854248,
          -0.4006338147476398,
          0.4084149519507584,
          0.0001937143209640394,
          -0.06806271302621243
        ],
        [
          -0.23994970394030435,
          0.22048350694069063,
          -0.09588569165803375,
          -0.32592337798860077,
          -0.16367440390994492,
          0.3615332870205969,
          -0.02703707191720138,
          -0.26011801601452583,
          0.3126274062765871,
          -0.24110351469208985,
          -0.25582528229286844,
          0.20458703316673904,
          0.08043844526944054,
          0.16142817639056575,
          0.016440941024908673,
          0.17219807585742672
        ]
      ],
      "A2": [
        [
          -0.23810263191160766,
          -0.36420353619222373,
          0.2261781108468073,
          0.5178149012316909
        ],
        [
          -0.2487835471626354,
          -0.01528081216179563,
          -0.24804092759259116,
          -0.28926959797900537
        ],
        [
          -0.2273982962697987,
          -0.2674964883953883,
          -0.24705117535852272,
          0.3101802552621988
        ],
        [
          0.4645027285495367,
          0.0006656664018904906,
          -0.022991927373351102,
          -0.2028475912139476
        ],
        [
          -0.302524848577391,
          0.07342447898014255,
          0.05676622947073125,
          -0.34607309463530417
        ],
        [
          -0.16194489970456136,
          0.024201148927011203,
          0.011039854891300575,
          0.16236957153942352
        ],
        [
          0.3981095258314825,
          0.09540341853838338,
          -0.10025622413918663,
          -0.059575773938492484
        ],
        [
          -0.532713256132623,
          0.1134167936984665,
          0.19954313201128734,
          0.051975938766499835
        ],
        [
          0.1537196491065678,
          0.006136193801049558,
          -0.3817952703483545,
          0.09753695374376894
        ],
        [
          0.34692562184411535,
          -0.5019303217085294,
          0.0802193749708013,
          -0.2348968311601308
        ],
        [
          -0.06630647047654412,
          -0.29750999070657974,
          -0.120268253566953,
          -0.19484640247346272
        ],
        [
          -0.4265410015458486,
          0.21771098671201133,
          0.1095760549539876,
          0.05929464085167721
        ],
        [
          -0.13507126125819002,
          -0.10719999084854837,
          -0.051678175850569066,
          0.09863149583131078
        ],
        [
          -0.4021049818879002,
          -0.35379690313217255,
          0.1799839365207699,
          -0.46724770180968095
        ],
        [
          0.18991473101958742,
          -0.11783817316666913,
          0.20148689953268356,
          -0.6703880615982784
        ],
        [
          -0.5203981155720379,
          0.20082568385710362,
          0.20763925704420116,
          0.15550004845739934
        ]
      ],
      "B2": [
        [
          -0.134133993693509,
          0.17897403300301284
        ],
        [
          0.25382466758075023,
          -0.01089648759345781
        ],
        [
          0.3422696861895614,
          0.12582364151219477
        ],
        [
          -0.3823153698807283,
          -0.488217765149803
        ]
      ]
    },
    "4": {
      "A1": [
        [
          -0.10297898813709191,
          -0.20456528232478802,
          -0.3550363598748639,
          -0.5332922492050318
        ],
        [
          -0.027456630037863337,
          0.23661671394056838,
          0.26263822031213413,
          -0.13287422220730485
        ],
        [
          -0.3935777628677227,
          0.1361274190504429,
          -0.20175039641165454,
          0.096501032772058
        ],
        [
          0.30243072494629886,
          -0.22187014650117406,
          -0.21202559353426195,
          -0.1907950848054636
        ],
        [
          0.2512505485610254,
          -0.031040226060592282,
          -0.10883020571411797,
          -0.13413845905766625
        ],
        [
          -0.18439886961532562,
          -0.3881866218353577,
          0.29459578765799904,
          -0.4766050494293447
        ],
        [
          -0.7002934171037173,
          0.43778589800819206,
          -0.052479260922254474,
          -0.5465397778588786
        ],
        [
          0.0693894398652006,
          0.07801567851245891,
          -0.3490206787393477,
          -0.047657222487548584
        ],
        [
          -0.17541077114952264,
          -0.1274991499698739,
          0.3693233369689307,
          -0.3592861346927957
        ],
        [
          -0.23907228206252798,
          0.23035708036806354,
          -0.23483322054289776,
          0.24190272701512291
        ]
      ],
      "B1": [
        [
          -0.300401153552893,
          0.16682666676877353,
          0.5080710502788672,
          0.3083817062452503,
          -0.20713846499384891,
          0.3638939129423631,
          0.36988117721425945,
          -0.3345543982929418,
          -0.20451813173235495,
          0.14808232912194222,
          -0.0026738632767966623,
          -0.055841788906079604,
          0.027923330197183367,
          0.4551668221653528,
          0.03061123073307484,
          -0.1002502197785616
        ],
        [
          0.12161689842023865,
          -0.7046796682617791,
          0.10815893670804236,
          0.6672599431087965,
          0.27675514750336155,
          0.16726852289918745,
          0.26493132543406367,
          0.32210566839382687,
          -0.008331708082377258,
          -0.3533337801333267,
          0.07979226258515966,
          0.23499702303892286,
          0.46546534116388527,
          0.2991590733520883,
          0.2461932149569923,
          0.2598985327607372
        ],
        [
          0.10149090112388519,
          -0.03855010334879123,
          -0.17438509830437082,
          -0.23872922957269252,
          -0.0540973958144933,
          -0.3684792664901174,
          0.4658292185343929,
          0.10953032399879589,
          -0.2180946158954044,
          0.10429477230709709,
          -0.3906778969619466,
          -0.27916519159569764,
          0.27544202845762067,
          0.4380571917370215,
          -0.44684183107177744,
          0.5911485099631382
        ],
        [
          -0.07636839607700353,
          0.09878210776448768,
          -0.14721785290594677,
          0.05687145130932869,
          -0.05090629894342214,
          0.25304125185661364,
          -0.14471822609371968,
          -0.2857869779990464,
          0.31059434950822523,
          -0.14743327791749022,
          -0.5775074464992007,
          -0.4229573334655439,
          -0.26966153292420636,
          0.16006608929866784,
          0.22384720666936164,
          0.4479801322663315
        ]
      ],
      "A2": [
        [
          -0.1628565809500736,
          0.6636917263752454,
          0.5612665029404345,
          0.07263139516803327
        ],
        [
          -0.011800709540432101,
          -0.26659586775962907,
          0.2628368811065833,
          -0.255968176262166
        ],
        [
          0.0670253560654672,
          -0.26877683421958914,
          0.1517614618353423,
          0.0890709203306711
        ],
        [
          0.21808973743109694,
          -0.19213375652863732,
          -0.2207867841627977,
          0.2892442360094361
        ],
        [
          0.22044086671643587,
          0.19667553185069617,
          -0.34496071180538385,
          0.21683510119725136
        ],
        [
          0.21892639369850217,
          -0.13344287509020425,
          0.13528525779326742,
          -0.2636178471987073
        ],
        [
          0.10142818632761412,
          0.12211394803175138,
          -0.17135764011925725,
          0.14925750503974253
        ],
        [
          -0.28232953498129437,
          -0.24090194441559115,
          -0.060194722335910264,
          0.4478274240737952
        ],
        [
          0.19703658403657712,
          0.3886271777412588,
          0.4662941704506139,
          0.2576743871953444
        ],
        [
          -0.3070355305270362,
          -0.08900994244122652,
          -0.08075334360972214,
          -0.08450922401477952
        ],
        [
          0.6052795788864753,
          -0.5993668346083263,
          -0.026577843397244935,
          -0.5679099112739957
        ],
        [
          -0.15950658410437546,
          -0.20049855110472528,
          -0.08130516789138836,
          -0.20208550614524687
        ],
        [
          -0.015222678454565125,
          0.1430329673835732,
          0.3459300582331154,
          0.23044378649206168
        ],
        [
          -0.579902676970912,
          0.525617411776064,
          -0.019854591090431948,
          0.18702079403344038
        ],
        [
          -0.47384225150034304,
          -0.11056390060689238,
          0.30777723653009587,
          0.09346372720863959
        ],
        [
          0.06756119428050902,
          0.19123486984311136,
          -0.4532608396469408,
          0.495946590686042
        ]
      ],
      "B2": [
        [
          -0.2543621953391015,
          0.06486416604436776
        ],
        [
          -0.4949413332689829,
          0.13877241273841737
        ],
        [
          0.6465654273862194,
          0.18222894178320523
        ],
        [
          -0.0732692093710746,
          -0.5880206480611068
        ]
      ]
    },
    "5": {
      "A1": [
        [
          -0.44688028964973703,
          -0.37681901162679593,
          -1.0178066179391665,
          -0.20286469102018306
        ],
        [
          0.24533061397684963,
          0.09049505363456052,
          -0.9088414467583426,
          -0.4845920303225825
        ],
        [
          -0.2840646728735552,
          -0.00861008464091258,
          -0.007166160545493872,
          0.8524724381813937
        ],
        [
          -0.3427840694495345,
          -0.3067822867367824,
          -0.3171681615841278,
          1.234844744902333
        ],
        [
          -1.6195103908180735,
          0.48571107306677125,
          -0.12308786064013015,
          0.11355591319718124
        ],
        [
          0.17375728666689585,
          -0.07185281250247899,
          0.1348181826060886,
          0.2969627771121688
        ],
        [
          -0.45274258052843547,
          -0.42839594096651296,
          0.7175796813763665,
          0.3055465338330496
        ],
        [
          -0.6400248888197132,
          -0.7584489499575755,
          0.3561393649395161,
          -0.016272899283481277
        ],
        [
          0.23641696886746996,
          0.24735500650451173,
          -0.2287061943723051,
          -0.5696185727472307
        ],
        [
          -0.3795529654760429,
          -0.23644079161955744,
          -0.31452085000269087,
          0.2720765907112251
        ]
      ],
      "B1": [
        [
          0.6561020465167897,
          -0.23940575711421486,
          -0.3271864153744223,
          0.02041655169123251,
          0.455732305243462,
          0.2658123119158477,
          -0.2692787303947527,
          -0.3114897981074131,
          0.27278155156760014,
          0.5190185657435963,
          0.015863278514841227,
          -0.3386075253668003,
          -0.40205234225874237,
          -0.07780191744282748,
          0.18883319958524325,
          -0.4312643238138471
        ],
        [
          -0.6777012034997083,
          0.34857063469004906,
          0.007043715562572282,
          0.07636283504243728,
          -0.348167138825974,
          -0.17433780718188732,
          0.18153628966553587,
          -0.05245746663991963,
          -0.4603821798373956,
          -0.7088328100654899,
          0.05305033753218696,
          -0.9233221280991408,
          -0.30013141197469145,
          -0.2802572083605989,
          -0.32365126527717675,
          -0.8790831593827402
        ],
        [
          1.8709205760219159,
          0.46818692753294106,
          -0.10814308806137482,
          -0.414009924303601,
          -0.2481113522355207,
          0.18785409178408682,
          0.26823087648513616,
          0.584260475697206,
          0.203029915977814,
          -0.14638669297195703,
          -0.8184319443809455,
          -0.26025761263541014,
          0.6179770272912589,
          0.36941010813409564,
          -0.4299581009749206,
          0.006652249195198945
        ],
        [
          -0.011937527870720286,
          -0.2726663703950681,
          -0.10588418294694867,
          0.45091216212861107,
          0.42883512837938076,
          -0.5368947901310556,
          0.4063343946412486,
          0.3529787857589463,
          0.27809861333387664,
          -0.12810872588171926,
          0.2908210923932959,
          0.7001866997159312,
          -0.2717990025795857,
          0.3496013092974066,
          -0.3752931564490554,
          0.303143858374042
        ]
      ],
      "A2": [
        [
          -0.21823020465040352,
          0.30844494326922445,
          0.13116998955213163,
          -0.08179766648018265
        ],
        [
          -0.059119357532584745,
          -0.7768358736325026,
          -0.09722401060767925,
          0.7419176115178485
        ],
        [
          1.1201529681092512,
          0.009609781269113028,
          0.024207050032591472,
          -0.6645817924768032
        ],
        [
          0.7634508485655193,
          -0.2972704218929909,
          0.31834201169091214,
          -0.420591687272734
        ],
        [
          -0.568337155156631,
          0.6642611216538609,
          -0.04079187020191655,
          0.08779946035205938
        ],
        [
          -0.2139600023013496,
          -0.0072177428132479925,
          0.07401051073877611,
          0.17700716506569047
        ],
        [
          0.3725237326344737,
          0.011858911177647499,
          0.2233019137166841,
          0.4202739755101918
        ],
        [
          0.032701324095427683,
          0.01277501650978814,
          -0.4011713210389289,
          0.2575494316394834
        ],
        [
          -0.013262382726764757,
          0.6634615673174399,
          0.5390394679999545,
          -0.1451410489055578
        ],
        [
          -0.7384506344496974,
          -0.25284219260242263,
          -0.1065949351844635,
          0.4569292417235346
        ],
        [
          -0.022679084814783246,
          -0.7541611400254501,
          0.4733884328719633,
          -0.3985334625915892
        ],
        [
          0.18077254873275722,
          1.2076807085629555,
          -0.23934719157888307,
          -0.11490415759183457
        ],
        [
          -0.3982988709452364,
          0.3900384098649312,
          -0.003033447428371465,
          0.020072752365654766
        ],
        [
          -0.015364872373579792,
          0.15279876620705615,
          -0.5060299906113482,
          -0.10009975643646761
        ],
        [
          -0.34218100782803984,
          -0.0710013853909997,
          0.6455021181258016,
          -0.05257931219900477
        ],
        [
          0.10764996723033446,
          -0.056276383895274056,
          0.7324507654848675,
          -0.2778576428137013
        ]
      ],
      "B2": [
        [
          -0.5363545233365388,
          0.3442854995764671
        ],
        [
          0.4181747004308366,
          -0.5451297590517171
        ],
        [
          -0.48030328258882005,
          -0.9794560816951241
        ],
        [
          0.6091703980405797,
          0.12217470289960057
        ]
      ]
    },
    "6": {
      "A1": [
        [
          0.17840870994305366,
          -0.3122584683912113,
          0.09915016008717589,
          0.4695662350734273
        ],
        [
          0.046813519512241566,
          -0.41182575586991127,
          0.07033608203823452,
          -0.01155174875746356
        ],
        [
          0.19952308491040593,
          0.8485609676583661,
          0.5674401797841901,
          -0.22043490603466576
        ],
        [
          0.7467942296105767,
          0.3223695062387811,
          0.06593512750285711,
          0.08526906485981137
        ],
        [
          -0.4237904323848264,
          0.8368456799287618,
          0.25421831521865207,
          -0.9040973000717116
        ],
        [
          -0.3759136205712038,
          0.5208658600939952,
          0.18938759509865083,
          0.1858521605056895
        ],
        [
          0.6320133932153985,
          0.9182238226952641,
          -0.40111664144216735,
          0.9196423988189364
        ],
        [
          1.0074351627870468,
          -0.3225336334262361,
          0.24060087799384183,
          1.0395103143446147
        ],
        [
          0.09301323017890722,
          -0.09837777075434664,
          0.5368554695580016,
          0.27796500081521125
        ],
        [
          -0.2464388685256981,
          -0.44343295563444507,
          -0.8595646794921367,
          -0.11292512625790399
        ]
      ],
      "B1": [
        [
          0.10470224566722507,
          -0.6876202478813764,
          0.7330208248079731,
          -0.5977224455653001,
          0.20784607539927183,
          -0.5603485797554042,
          0.6323149399291936,
          0.04968715396274721,
          -0.9120492888514831,
          -0.5460860284566627,
          -0.31046472258572505,
          0.008244804229751983,
          -1.199064868450042,
          -0.27603830830707443,
          -0.21010926805499258,
          -0.12081971603522093
        ],
        [
          0.5642681619667417,
          0.28219104993994765,
          0.6785514043794936,
          0.40063920233339734,
          -0.09973424437260721,
          0.12213786519069895,
          0.2713115707154547,
          0.15738479641614136,
          -0.03611768078810544,
          0.18594711638516387,
          0.35445936952836254,
          0.43554278989505474,
          0.5804673431243458,
          -0.7501879080780888,
          -0.5199343995670554,
          -0.036193434724116916
        ],
        [
          0.043787403444944875,
          -1.3908402641504716,
          -0.02047937750988,
          -0.03930925119524782,
          -0.14316299368106716,
          -0.6637954659315031,
          0.05335224195148875,
          0.19624952819776154,
          0.17362102986994343,
          -0.9773852604439635,
          -0.9326431080553103,
          0.22179179719606784,
          -0.0358658547213864,
          0.07834094999159547,
          -0.14645283149406765,
          0.048901103590789315
        ],
        [
          -0.5807718557721505,
          -0.1402567115874574,
          -0.4044765773929883,
          0.2510531764704144,
          -0.24869176920881447,
          0.056579855540662076,
          0.18178767965170622,
          0.13050256464653548,
          0.6742475680632879,
          0.9804953782273541,
          0.10887443086786569,
          -0.09674646185568106,
          0.6491234519790575,
          0.5522529749598056,
          0.2417109479062216,
          -0.6107585659710149
        ]
      ],
      "A2": [
        [
          -0.5385490171846673,
          0.006482236071552419,
          0.9860144364274999,
          -0.6048253121419506
        ],
        [
          -0.3016871282617011,
          -1.2363551407646123,
          0.5741692803004028,
          -0.19300191076371195
        ],
        [
          0.24548189343619187,
          -0.3363096572588608,
          -0.6643270265705394,
          -0.11805020327361683
        ],
        [
          0.08009478656672257,
          -0.8837804120362467,
          0.8751773641863483,
          0.3508021606050076
        ],
        [
          0.4933039395140429,
          0.04149687880681502,
          -0.45920988215085845,
          0.1694522607432802
        ],
        [
          -1.1796098373673423,
          -0.30877440113229465,
          -0.41659282711091444,
          -0.13943590742845352
        ],
        [
          -0.30590752960654816,
          0.47941889367745566,
          0.06486272058679853,
          -0.5660773441452515
        ],
        [
          0.40758342400471054,
          -0.7966479103725823,
          0.1604220006315589,
          -0.3763584191505321
        ],
        [
          0.19964138491952482,
          -0.7263085005973172,
          0.38232976459278495,
          -1.0425768347729558
        ],
        [
          -0.4691285873761473,
          -0.37638489096226996,
          1.044452586050876,
          -0.5886502493532803
        ],
        [
          0.7009756647283952,
          -0.10123664544042547,
          -0.7939083222796113,
          -0.1093780735518073
        ],
        [
          0.7330809551018762,
          -0.028588222131869928,
          0.6038605664740474,
          0.04874398384822862
        ],
        [
          0.15040598783816891,
          0.06677201735448404,
          -0.5430969126085969,
          -0.8822496313039274
        ],
        [
          0.23068324280849262,
          -0.204572993667674,
          0.2331841570282463,
          -0.6495045272289137
        ],
        [
          0.11103399676248032,
          -1.1060561234227566,
          -0.832093365343403,
          -0.294568773748887
        ],
        [
          -0.23991172882482242,
          -0.26828234156479186,
          -0.004554614687457801,
          -0.505188279726745
        ]
      ],
      "B2": [
        [
          0.2059464179122213,
          0.752534361014462
        ],
        [
          -1.1181169836545253,
          -0.4708800454846977
        ],
        [
          0.051802446782976054,
          -0.3752477856346658
        ],
        [
          -0.7193412876726996,
          -0.1328598100299374
        ]
      ]
    },
    "7": {
      "A1": [
        [
          -0.2687851416315801,
          -0.2102259980396731,
          0.10442397537181386,
          -0.3904952855624035
        ],
        [
          -0.16379949149347103,
          0.5787598029302864,
          -0.7173494690293027,
          0.5913575256559158
        ],
        [
          0.3783820902437329,
          -0.2889810258489764,
          -0.1790470168826089,
          0.21728440479762556
        ],
        [
          -0.735203560013603,
          -0.17012349690905937,
          -0.06717529257177011,
          0.02038777294221379
        ],
        [
          -0.27663197741047674,
          -0.15135045084481766,
          -0.06498837641972563,
          -0.5718955725583119
        ],
        [
          0.5290415471514157,
          0.4965252990657764,
          0.2723275640639656,
          0.694561577631572
        ],
        [
          0.23544859341003815,
          -0.15672502151512988,
          -0.4015607361913958,
          0.028290003145155233
        ],
        [
          0.24263388903220806,
          -0.4183887410602086,
          0.16868657825669278,
          -1.1111154987551382
        ],
        [
          -0.7909273865760653,
          -0.9770276013825364,
          0.37707032784370537,
          0.17737564990184373
        ],
        [
          -0.1850124931748261,
          -0.20686550133590098,
          0.3843503287989245,
          -0.1665506421923484
        ]
      ],
      "B1": [
        [
          0.13814309006231887,
          -0.053857727972694995,
          0.2959471390714167,
          0.6679056244815068,
          0.8321317448055429,
          -0.6455539248007334,
          -0.8185635936727833,
          0.9462823989556255,
          0.4014485262888639,
          -0.48636028604693043,
          0.23954527394619504,
          1.0557668390201442,
          -0.5232810775455151,
          -0.04492431943730826,
          -0.010642600095264665,
          -0.3710472036528903
        ],
        [
          0.20906403304555135,
          -0.34745455447912327,
          -0.49216783900787586,
          -0.18641681183570333,
          0.5435997917383119,
          0.01315151350131992,
          -0.6843925797360829,
          0.10671759635957175,
          -0.0699523046909746,
          0.12855961103783092,
          -0.30519678536719785,
          0.12443438824492128,
          -0.42771860461219946,
          -0.5603286570845504,
          0.04119751724721089,
          0.41276544993215075
        ],
        [
          -0.08385957446757235,
          0.0468128027336288,
          0.24353173982170476,
          -0.40238252679160874,
          0.4756469897283069,
          -0.9569578036526134,
          -0.019476491909972037,
          0.13414312207426418,
          0.6450271438805447,
          0.4834530051957343,
          1.5603082508582975,
          -0.5515152690514437,
          -0.48034636828690697,
          -0.3036322121548361,
          -0.18530032567288462,
          0.8199753327337865
        ],
        [
          0.4953534161433293,
          -0.4488170045520983,
          -0.25580022662920343,
          0.36911926433873554,
          -0.2665267717983267,
          0.2919013084659346,
          0.2831122966339337,
          0.48386066050075194,
          0.025315381264197724,
          -0.4228903501137051,
          -0.1409016606530657,
          -0.6172688283106877,
          0.26898477177611246,
          -0.2202885481330308,
          1.01589209791389,
          -0.18296918715259383
        ]
      ],
      "A2": [
        [
          0.6099261268024276,
          -0.16215101694254988,
          0.39826020514940996,
          -0.3242595368683428
        ],
        [
          -0.7242330807736145,
          -0.07141604706715415,
          -0.027337769703222714,
          -1.0907089277149162
        ],
        [
          0.6414850277111545,
          -0.15918478380849715,
          0.20809775560055344,
          -0.2544000974324297
        ],
        [
          -0.802950985324021,
          0.08748206272456639,
          -0.6917655577631884,
          -0.2898108058378695
        ],
        [
          0.11027857669677268,
          0.020659009061622026,
          -0.4885195292488329,
          0.5508824600188106
        ],
        [
          0.11952598067388825,
          0.7612860560953814,
          -0.34057717156259204,
          -0.11511709196590733
        ],
        [
          -0.8755166426662492,
          -0.3516106235708754,
          0.45319389144923256,
          0.05900687536310694
        ],
        [
          0.5742947939886076,
          0.5889655042233571,
          -0.08591613460197124,
          -0.6227149498904369
        ],
        [
          0.07480105084102462,
          -1.0665033496184366,
          -0.06596105736983557,
          -0.7411656911761833
        ],
        [
          0.04089738515988098,
          0.6220388266765626,
          0.24936175207469055,
          -0.12087460792730098
        ],
        [
          -0.2489748399063252,
          0.46347974577204326,
          0.8055479581009477,
          -0.2057534083997931
        ],
        [
          0.6925896601668707,
          -0.012683210596073177,
          1.2464918216136742,
          0.17654478450224195
        ],
        [
          0.7077104846235243,
          0.08441296854174768,
          -0.3479015618768586,
          -0.6640059785256176
        ],
        [
          -0.8304745442589228,
          -0.13541512224947133,
          -0.8569738336858781,
          0.7938414013287576
        ],
        [
          0.3996885003009982,
          0.12792989504989444,
          0.5302875238011981,
          -0.346982984538962
        ],
        [
          -0.513203116441153,
          0.3714253907691053,
          0.0523290486771041,
          0.19753400634356288
        ]
      ],
      "B2": [
        [
          0.44602899794576123,
          0.09576334598458947
        ],
        [
          0.6109894449047769,
          0.40078807507184167
        ],
        [
          0.4594301236134906,
          0.4671271444491404
        ],
        [
          -1.2160072506031363,
          0.21997049277585068
        ]
      ]
    },
    "8": {
      "A1": [
        [
          0.23347262380027653,
          0.3619679025568001,
          0.17311522975069082,
          -0.07068793065757688
        ],
        [
          -0.5280745772828914,
          -0.3669061190032867,
          -0.3930085613202849,
          0.016712357701428333
        ],
        [
          0.1700315182245213,
          -0.13151382139669904,
          -0.26019107078533155,
          0.1507227906663632
        ],
        [
          0.24787381068217645,
          0.32535312726973264,
          0.0008126341104147151,
          -0.5922160191511979
        ],
        [
          -0.6853049015345386,
          0.5503470936375133,
          0.15397757684659888,
          0.2838807536002958
        ],
        [
          0.5567773799316973,
          0.3234550584404638,
          -0.43030371033172626,
          0.5467692494069838
        ],
        [
          0.6486011293897072,
          0.08334584101965925,
          0.0427047796650523,
          0.4255475944728916
        ],
        [
          -0.13955204341113317,
          0.6002924335783738,
          -0.4138030231556638,
          0.052579249392703836
        ],
        [
          0.17906666862481443,
          -0.2928242050784054,
          0.09843424521614731,
          -0.5578984286885986
        ],
        [
          0.5891154312392586,
          -0.7986593822308836,
          -0.10711972517038493,
          -0.1519866916201753
        ]
      ],
      "B1": [
        [
          0.46457241222563433,
          0.028070220142059125,
          0.9780562100503927,
          0.29150305853081454,
          -0.13800877841687115,
          -0.26582182706767693,
          0.5341313117087708,
          0.27512414635808685,
          -0.09534136753170515,
          0.8388276022857503,
          0.12677030792703503,
          0.12076159703508207,
          0.5976423857110226,
          -0.24474607648722885,
          -0.5086341623647799,
          0.41515830882858584
        ],
        [
          0.08863262922411938,
          -0.23377358339235554,
          -1.1351488639564749,
          0.03514854712303111,
          -0.23797061287829824,
          0.3036250420980062,
          -0.35275359123200295,
          0.44146654378626754,
          0.042662443872190994,
          -0.5633987431718571,
          0.5755322285603814,
          0.07427787851754579,
          -0.59749742565657,
          0.4158979536211376,
          -0.34490320719577583,
          0.11960152498227333
        ],
        [
          -0.31990300449633724,
          -0.12965398238699477,
          -0.16948931911159787,
          -0.20768117230750077,
          -0.12760522666309893,
          -0.1962146222507759,
          0.19133863372175874,
          -0.3701746745221677,
          0.12330777110042238,
          -0.21607318744392098,
          0.06784058669749846,
          -0.031237629210623518,
          0.40866762730728273,
          -0.09580721711410542,
          0.527818573548913,
          0.385420329330092
        ],
        [
          -0.273208700253252,
          -0.27861895782010104,
          0.06498555213277724,
          0.36796484022117215,
          0.04069465757379713,
          -0.667430707105678,
          0.37095010234982057,
          0.46709124159155624,
          -0.22787640238325726,
          -0.09252411675195682,
          -0.6590715419644437,
          -0.09420748176859693,
          -0.48329041338802964,
          0.2538699552994191,
          0.3465121103072673,
          0.3650630135084399
        ]
      ],
      "A2": [
        [
          -0.17168415853051033,
          -0.061287084493887034,
          0.554635777598269,
          0.3360686323552333
        ],
        [
          -0.04111378784341833,
          0.37720790504080604,
          -0.6609114002615805,
          -0.0382158442086408
        ],
        [
          -0.5452533277821807,
          -0.7044678020649452,
          -0.10987682317606283,
          -0.19742864035519322
        ],
        [
          -0.834268409293716,
          -0.28718409151784924,
          0.016155389206791118,
          -0.12253216285647543
        ],
        [
          0.4569169671667452,
          -0.1663175470925948,
          -0.2855851699417886,
          0.029146573759177393
        ],
        [
          -0.5093549175514586,
          -0.11622339473723071,
          0.6374531047907489,
          -0.06840797182890496
        ],
        [
          0.23238073985203564,
          0.44710155814797026,
          0.42756756597946827,
          0.25431471386980514
        ],
        [
          -0.5255299056080213,
          -0.033056453512103165,
          -0.8666072284469711,
          -0.35070186843799844
        ],
        [
          -0.4387615965635403,
          0.12563498964946648,
          0.23116125905544607,
          0.13691475535007086
        ],
        [
          -0.3531949662968196,
          0.08784887691538527,
          -0.029105518973375683,
          -0.4141587257435508
        ],
        [
          0.38058103482128597,
          0.30440481789312734,
          0.04167577571623408,
          -0.3502386583552719
        ],
        [
          0.04824883381014344,
          0.5133875630760727,
          -0.22071922489594667,
          0.44138794327701203
        ],
        [
          -0.5336810262157823,
          0.7643375182808251,
          0.05237821693252263,
          0.12583622680198125
        ],
        [
          -0.22391562801711323,
          -0.041584445715916546,
          0.1103267385758207,
          0.5724618487603861
        ],
        [
          0.29873474134587846,
          -0.26757694389458925,
          -0.47062257207044467,
          -0.4764788914790165
        ],
        [
          -0.22945101901068948,
          -0.055426235484146526,
          0.11301576065582133,
          -0.2979947580973842
        ]
      ],
      "B2": [
        [
          -0.662835813276601,
          -0.08401791338273305
        ],
        [
          -0.030350681517346118,
          -0.5362998411398472
        ],
        [
          -1.2551878231818223,
          -0.44692415436448385
        ],
        [
          -0.819220370453253,
          -0.030388204793642556
        ]
      ]
    },
    "9": {
      "A1": [
        [
          0.0219693975373995,
          0.9711700048077746,
          -0.36896083392490653,
          0.5272955333558208
        ],
        [
          0.3044601695662447,
          0.91686558331972,
          0.3801939236128598,
          1.342663202155259
        ],
        [
          0.7618707434283407,
          0.14320319494820985,
          -0.14547284258099433,
          0.8492105333053929
        ],
        [
          0.24275747292937883,
          -0.971171837620277,
          0.037028282001364966,
          0.2808491283012101
        ],
        [
          -1.4581048216026176,
          -0.062251291382926975,
          -0.1792075830747413,
          -0.3257083236002462
        ],
        [
          -1.2527556433685465,
          1.0313729606493585,
          1.0730937676989256,
          0.463912508113024
        ],
        [
          0.864383687562086,
          -0.6216162571864852,
          0.350214504510271,
          -0.7294652826431083
        ],
        [
          0.9499339861291513,
          -0.6636031530977657,
          1.2119717337165288,
          -1.378452713038987
        ],
        [
          0.1445438847904905,
          -0.6053277768509655,
          -0.7754440565685228,
          0.13138372469314122
        ],
        [
          -0.07991899347069314,
          -0.10362092282649876,
          -0.5697148753258847,
          -0.17566442052054415
        ]
      ],
      "B1": [
        [
          -0.15417582841389854,
          -0.25236931070862817,
          0.20018159396098809,
          0.07148871661101457,
          0.3994919592023915,
          0.11273486088750377,
          -0.4997949574804098,
          -0.0821719433702,
          -0.35086338844922577,
          -0.9238214405448718,
          0.1485232523684432,
          0.24783845969887025,
          0.4481667711437989,
          0.5877325085129259,
          -0.21410389697432888,
          1.0952057919901923
        ],
        [
          1.6183578872376632,
          1.116775738516132,
          -0.5143971005483151,
          -1.0217309259086438,
          1.4558419231052377,
          -0.06703226820848332,
          -1.8723268469907004,
          0.3862276687450214,
          1.2051330638221627,
          -0.29799933041850457,
          -0.005003046590972615,
          0.11006123877031576,
          0.8541750015441947,
          0.29740807947864173,
          0.2946952265296753,
          -1.0423144955454857
        ],
        [
          0.07908053186337301,
          0.5789205547135582,
          0.8666338414420991,
          1.0852729761904947,
          0.6937511581673088,
          0.8936942652965566,
          -0.29483057347697667,
          0.2495413892112203,
          1.2420494279022234,
          -0.3009760149316485,
          -0.2474961015880836,
          -0.6665460072205531,
          -0.9528868736062192,
          0.5876346384617971,
          0.6620678500150605,
          -1.0381125561508444
        ],
        [
          -0.24570332259646485,
          0.4892843193915055,
          0.7732423535260384,
          -0.6717531462455384,
          -0.9248362404114367,
          0.2789181182885173,
          1.348663706933663,
          0.982920907404742,
          -0.13410038020116583,
          0.7150165674188244,
          -0.3529596011937332,
          0.12097581703850131,
          0.41207316359991003,
          -1.2238185344285928,
          0.7752122499631244,
          0.6029092628757418
        ]
      ],
      "A2": [
        [
          -0.7581167217136272,
          0.5659504439103985,
          -0.0784305113767034,
          1.2094318400069433
        ],
        [
          -0.11250619040762462,
          0.3948402836935576,
          0.3264061570498549,
          -0.2668921019568003
        ],
        [
          0.5664749877466788,
          0.5205159496121317,
          0.8826563467210821,
          -0.16657898050412676
        ],
        [
          1.4954433583284434,
          -0.15298550350720916,
          -0.42839109612502935,
          0.15554098058255078
        ],
        [
          1.1217619698431736,
          1.000009567735451,
          1.2821408721990761,
          -0.9150389542911033
        ],
        [
          1.194314270780362,
          0.7699804323853131,
          -1.0520141636487812,
          -1.2704926764644409
        ],
        [
          -0.3179458759116326,
          -0.579634627430994,
          0.6492536467094688,
          0.015018723022157924
        ],
        [
          1.7721549046972565,
          1.9710360408894987,
          -1.6123341088209648,
          -1.0494481399179079
        ],
        [
          0.39841899196582214,
          0.0607385853863935,
          -1.0572467092929347,
          0.41828605498159366
        ],
        [
          1.428935040113701,
          0.160040412803055,
          -0.5286346060616967,
          0.2124764669661832
        ],
        [
          0.9313550483364287,
          -0.0799783016259842,
          0.07293701540419723,
          -0.46345830089315704
        ],
        [
          0.40697391107628994,
          0.013297199593820086,
          0.5439773679855187,
          -1.4658876757989125
        ],
        [
          -0.7878236688458339,
          0.23846377652900247,
          -1.7710134634438766,
          0.7795004814292363
        ],
        [
          0.3502717996905983,
          -0.4447723727801247,
          -0.11024354982065107,
          0.464756761923444
        ],
        [
          0.6614782411252197,
          -0.03950356956092151,
          -1.5117679644394824,
          0.8796034414848946
        ],
        [
          -0.015389036412783375,
          0.4863827507977209,
          -0.34697073455321475,
          -0.6004201057791857
        ]
      ],
      "B2": [
        [
          3.1043319636273883,
          -1.1856619654122464
        ],
        [
          0.5642500108439519,
          -0.7984745799636573
        ],
        [
          -0.9644485975035926,
          -1.2137978940658618
        ],
        [
          0.8641770263045853,
          1.385739653647466
        ]
      ]
    }
  },
  "currentLevel": 9,
  "rank": 4
}