{
  "version": 2,
  "base": {
    "w1": [
      [
        -0.052477088930217144,
        -0.45564405963159244,
        0.8659095429540855,
        -0.3460569748894251,
        -2.402860871874314,
        -1.7192340474213181,
        -0.5865570992367186,
        -0.9752369174773968,
        -0.9018754503861269,
        -1.7474154833069422,
        0.06163461244001686,
        -0.5850346037665478,
        1.1410829175980062,
        0.9984909398015018,
        0.1429485883355653,
        -0.8202508558446705
      ],
      [
        0.5284540452277637,
        2.4957419591873546,
        -0.4777315425829976,
        -0.5218445149787709,
        1.076860179374098,
        0.7642541929902157,
        -1.5728186893788405,
        -1.3871681666119224,
        0.6943976922402084,
        0.2191394984030159,
        -1.7034120612910504,
        0.41550007582027776,
        0.5850662015154378,
        -2.3110296315325742,
        -2.1740046805024056,
        -1.3946827095701049
      ],
      [
        0.0580445761526102,
        -0.07145903019082507,
        -1.6565986581153034,
        0.4407408721210213,
        -0.3785598455116598,
        0.8172168910554678,
        0.39148251325327754,
        1.33078472830336,
        -1.0248892944330004,
        -0.5182111417905443,
        0.43640501985463376,
        0.7362113474348804,
        -0.5889169300811736,
        -0.4345092797317982,
        -0.47675502044111495,
        -0.45476861248293776
      ],
      [
        0.5699300686050559,
        -0.4897318390747097,
        0.21756733506262738,
        -0.5602555351340425,
        -2.059329588430019,
        -0.09149091125548854,
        -0.6908092849109514,
        0.25934762716179655,
        1.284535117883524,
        0.3527766826744801,
        1.3850828589960666,
        -0.06589028647578916,
        1.0807504374145667,
        0.08268027536335414,
        -0.44456813862087596,
        0.5457436980928341
      ],
      [
        1.866764468659752,
        0.5211306528001524,
        -0.3309427257095336,
        0.9629049495029467,
        -0.34683721141759083,
        -0.49743562888071996,
        -0.993136067852637,
        -0.9764530853787655,
        -1.6056811434818024,
        0.15256254802432434,
        0.9900637883849464,
        0.8433023959012148,
        1.3069654180051244,
        1.198482569917759,
        -0.24207753604101126,
        -0.5601891053214413
      ],
      [
        0.37073351019548206,
        -1.20889538914742,
        -0.3263758135024093,
        -0.361395114916862,
        1.0868438304272237,
        -1.795987247108101,
        0.6856580828296069,
        0.875759300829991,
        -0.3841600274885762,
        0.632224851492185,
        -0.29252322315713514,
        0.019143354889479307,
        1.0223777775181322,
        0.6017244526195861,
        0.036390440826705436,
        -0.3637693421694031
      ],
      [
        0.537448180848824,
        -1.0739400515353634,
        0.10089850518464338,
        -1.216513514237699,
        -1.7136360339408814,
        2.125453491015009,
        -1.0541028318210959,
        1.9343143580794486,
        1.1585809114320718,
        0.22570843505288954,
        -0.054841486079033955,
        -0.10693123497204753,
        -2.2386226699094927,
        0.8460956573126789,
        0.5357358011547134,
        -0.018276186640998865
      ],
      [
        -0.6285571055809068,
        -0.4217551539224552,
        0.09752240068148571,
        1.614954460998232,
        -1.9491878870121435,
        -1.1804548723080104,
        -1.8009867181858816,
        -1.6918292989813088,
        -0.42684048567908883,
        0.6906730966196063,
        -0.5760475911520488,
        0.9766639709183237,
        -0.8356312302731205,
        0.8246008996520243,
        -0.4787566429351957,
        0.7627484284945394
      ],
      [
        -0.019215582372676964,
        0.7598606511802433,
        -0.3069546023626824,
        -0.1083789867663838,
        0.4340996055262599,
        -0.8038558878420212,
        -1.5488062526024609,
        1.5171517828344303,
        0.7182254304695158,
        1.9447390179740873,
        -0.7370426307696794,
        -0.26545860337771277,
        -0.5558744585822567,
        -0.5191924106234356,
        -0.9336240489063959,
        0.6325727131279856
      ],
      [
        -1.0275888263802786,
        -1.1262714273186385,
        0.17979857443714756,
        -0.5892528066397271,
        0.16845374784310238,
        -0.43383229552000074,
        0.045582399343808803,
        -0.6978844275766004,
        0.7080856806817626,
        -0.5360415986843245,
        -0.33595905991799146,
        0.4240162132522987,
        -0.8070833199465216,
        -0.9511502506566862,
        0.23829309871165288,
        0.7988081312807018
      ]
    ],
    "b1": [
      -0.3380557290168452,
      0.3638568488022677,
      0.09300062641527754,
      -0.3044091027424807,
      -0.16200380983265095,
      -0.3967204944419476,
      0.5396973919234392,
      -0.3869749667553706,
      -0.2978945136019379,
      -0.3453882453400362,
      0.3169091876765227,
      -0.41848317085503195,
      0.26067246995344334,
      -0.4826592372085518,
      -0.3067218505163005,
      -0.24263949675919283
    ],
    "w2": [
      [
        -1.3292858230601192,
        1.8140940026581294
      ],
      [
        -0.35758180724758803,
        -0.5727383007884401
      ],
      [
        -0.557695475405859,
        -0.11994739977576376
      ],
      [
        -0.4512733846154245,
        -0.3489459364091472
      ],
      [
        -0.17719736211228876,
        0.3235837215439894
      ],
      [
        1.203471389638198,
        0.22234403930771432
      ],
      [
        0.275343932963668,
        -0.5354856531398905
      ],
      [
        0.800152710065505,
        -0.07769514634080549
      ],
      [
        0.1650490793097458,
        0.8161400005982729
      ],
      [
        0.14622324422072785,
        0.12366177740020151
      ],
      [
        -0.41510841455731506,
        -0.8040222286434586
      ],
      [
        1.1632421767980237,
        -0.4789758640276802
      ],
      [
        -0.7207844472262236,
        0.7428418826633092
      ],
      [
        0.33600809016156724,
        1.1199761225651974
      ],
      [
        0.09608003530061728,
        0.36214669247189973
      ],
      [
        0.6869325086065718,
        1.0995199048143989
      ]
    ],
    "b2": [
      -0.07455007501476206,
      -0.0036181418699042832
    ]
  },
  "adapters": {
    "1": {
      "A1": [
        [
          1.7966898902091273,
          -1.4885518273811504
        ],
        [
          -0.7483117600338425,
          -0.13094551060322474
        ],
        [
          3.1715853512798504,
          0.0373470099459292
        ],
        [
          0.8039513759757143,
          -0.8470281945411131
        ],
        [
          -0.5523397979268933,
          2.2645166260384855
        ],
        [
          -0.004009267968581063,
          -0.058463478125711066
        ],
        [
          -0.5738997935547742,
          0.8843618515280981
        ],
        [
          -0.6632936607709776,
          0.21214000527662527
        ],
        [
          0.6200770014341133,
          -1.6202506535537513
        ],
        [
          -0.28538590701385713,
          -0.9082880655922114
        ]
      ],
      "B1": [
        [
          0.04736886264571042,
          -0.7298646002531021,
          0.07142227475133318,
          -1.1137664537940735,
          0.5347449464149112,
          2.063227895930119,
          0.9447426815850812,
          0.1627094933773426,
          -0.08095137140955105,
          -0.4469537466665626,
          -1.9726790124920262,
          -1.6930909450724057,
          0.04123050139558229,
          -3.441554258000489,
          -0.2759238148643389,
          0.7581718956560974
        ],
        [
          1.8914289818190884,
          -2.1027202409599313,
          -0.6078767257331863,
          -2.2541365158867057,
          0.4812602609548794,
          2.2442594595499576,
          0.750980277181026,
          -0.14977927367308355,
          -0.2539288714779431,
          1.974901242835281,
          0.8846566678768218,
          -0.06432144821872328,
          0.037709631893965284,
          -1.1964172634197603,
          -1.9537686115757307,
          1.348912780156213
        ]
      ],
      "A2": [
        [
          -0.9393684279638306,
          -0.30013594023302537
        ],
        [
          0.7638395649455662,
          -0.12349694139279725
        ],
        [
          0.3084668406315038,
          -0.3837516971998015
        ],
        [
          -1.5986945727406623,
          0.024154111405589686
        ],
        [
          -0.5992082622297521,
          -1.0138569130542294
        ],
        [
          -3.558170104617511,
          -0.2736960982634644
        ],
        [
          0.38125187098713453,
          1.3468117704502989
        ],
        [
          -0.3794259747427549,
          -0.621348402087279
        ],
        [
          -2.1546844077503864,
          0.8470085124758577
        ],
        [
          -1.5837963519975011,
          -0.8482161433649924
        ],
        [
          1.6357263491646934,
          1.6223308772312655
        ],
        [
          0.1275315039020004,
          1.5140910057162027
        ],
        [
          -3.39057148134662,
          -1.092394081687382
        ],
        [
          -0.29229449073659697,
          2.4482718364105076
        ],
        [
          1.3334250198136148,
          -0.87965722591023
        ],
        [
          -3.6138882740767455,
          0.6392727871797246
        ]
      ],
      "B2": [
        [
          2.2283833090176492,
          -0.38312435320654525
        ],
        [
          1.2532728243012008,
          0.6663061164196569
        ]
      ]
    },
    "2": {
      "A1": [
        [
          0.34987609800561165,
          -0.210228783957062
        ],
        [
          1.607001751070951,
          0.16432621123034993
        ],
        [
          0.23801575009374376,
          -1.0502003627077434
        ],
        [
          -1.8332630376253651,
          0.19420864456191309
        ],
        [
          0.006813636954824856,
          0.33633600466554286
        ],
        [
          1.4799242595548558,
          1.7724364201681928
        ],
        [
          -0.21815129616160917,
          0.07941143540064435
        ],
        [
          -0.02581441911674042,
          -0.3753404272988518
        ],
        [
          -0.26621541140790694,
          -0.9246727532846191
        ],
        [
          0.07814995540111622,
          0.4402570612203804
        ]
      ],
      "B1": [
        [
          -0.692319599915681,
          0.23800391678179475,
          -0.6369088944578183,
          -1.1092110967750544,
          -0.5730627919828518,
          -0.7159197874925866,
          0.9077474159467969,
          -0.16507535445598334,
          0.40983364425510377,
          0.020135448755988515,
          -0.9663235533500709,
          0.11281470969030288,
          -0.018022035062399383,
          0.3568376331973137,
          -0.713742450221953,
          1.8187766313398042
        ],
        [
          -0.23747588538238903,
          -0.3089988336382927,
          -1.5195240157279928,
          -0.23215422329444338,
          -0.9547638644493343,
          0.08820719767135582,
          -0.1821225434606146,
          0.18561716462644712,
          1.120715005340079,
          -0.1775807720006693,
          -0.6376976766429772,
          -0.9009727650396837,
          0.9064877310750885,
          0.9134235482859299,
          -0.039053215273815674,
          0.11428628314340444
        ]
      ],
      "A2": [
        [
          0.41151827413437153,
          -0.3333548286134555
        ],
        [
          -0.3832573001149858,
          0.12689442720584063
        ],
        [
          -0.09824884286272298,
          -0.1423236275975594
        ],
        [
          1.386890719109322,
          -0.6426125834388394
        ],
        [
          -1.326089896096224,
          0.7363583135623363
        ],
        [
          0.6050282509106318,
          0.18665658267168395
        ],
        [
          0.11906634097467206,
          -0.3464842391897518
        ],
        [
          0.3174064905256499,
          -0.8808982146432246
        ],
        [
          -0.3507556141547072,
          -0.7136544008665632
        ],
        [
          -0.7578611146206997,
          -0.0748352286004005
        ],
        [
          0.6031357942616757,
          0.06415085910295096
        ],
        [
          0.6522659866566357,
          0.3736022895066954
        ],
        [
          0.7656019129946143,
          -1.0052601993207397
        ],
        [
          -0.6810357130644016,
          -0.38406835283018925
        ],
        [
          0.5828582263283663,
          0.10482225520176544
        ],
        [
          -0.4090993129364879,
          0.013663183605213226
        ]
      ],
      "B2": [
        [
          -1.824946823530981,
          0.03368756489052524
        ],
        [
          0.3353156295917663,
          -0.20277313662498456
        ]
      ]
    },
    "3": {
      "A1": [
        [
          0.25303294932126597,
          0.020391046453347522
        ],
        [
          -0.20244496136155188,
          -1.0103071901473308
        ],
        [
          -0.45772518392676154,
          -0.555854865457794
        ],
        [
          -0.434665883273849,
          -1.1481468248248263
        ],
        [
          -0.7943542796249383,
          0.24341960736681753
        ],
        [
          -0.23403294812546244,
          0.7549379160074526
        ],
        [
          0.6662599654775819,
          -0.5474904372230747
        ],
        [
          -0.25953152086035297,
          0.6578814191572123
        ],
        [
          0.33888692710220486,
          -1.034411526893889
        ],
        [
          -0.11602334460467811,
          0.19630091734614544
        ]
      ],
      "B1": [
        [
          0.19858508232588049,
          0.0957732851821089,
          0.3206476006679532,
          0.7341870998332954,
          0.35537070739230026,
          -0.6060146873061649,
          -0.728592477418334,
          0.15195265088519466,
          -0.07834915387882424,
          0.1103080036974259,
          0.23028798312226406,
          0.49076765846129256,
          -0.974821910186151,
          -0.35751552341683257,
          0.5397640276527254,
          0.025433268394799903
        ],
        [
          0.520524439322787,
          0.17903700387405577,
          -0.4409743588184587,
          -0.8567893820120938,
          -0.33210296783894555,
          -0.6351239985716695,
          -0.27137382145054123,
          0.5231818004554676,
          -0.7309557824329685,
          -0.019132482435643597,
          -0.5033663830321213,
          -0.4693816189051862,
          -1.2222049668464279,
          -1.2318531891702422,
          0.7937642805229009,
          0.02141613469932018
        ]
      ],
      "A2": [
        [
          0.4046387152392305,
          0.17475557936808114
        ],
        [
          -0.6192831429982945,
          -0.5189007216112912
        ],
        [
          -1.062465290701009,
          -1.1631815040834865
        ],
        [
          -0.154499757823292,
          0.7376113673050801
        ],
        [
          0.3931904938664682,
          0.2443323171052327
        ],
        [
          -0.6428917830059983,
          1.3623323808960388
        ],
        [
          0.47783157196113163,
          -0.2675793869675909
        ],
        [
          -0.11104031613673612,
          -0.41074325064074096
        ],
        [
          -0.9970371724038569,
          1.2618781508425094
        ],
        [
          0.22500348731649902,
          0.44392047815734786
        ],
        [
          0.008804861226128573,
          0.8821613838266719
        ],
        [
          0.22798739962685924,
          -0.2880662677045798
        ],
        [
          0.10143600373702312,
          1.3297984705107122
        ],
        [
          0.09861672460123799,
          1.256168963613132
        ],
        [
          -0.34996932780813156,
          0.09861018736131628
        ],
        [
          0.051495328078775715,
          0.8778165718112894
        ]
      ],
      "B2": [
        [
          1.0257022640784044,
          0.8391214781309436
        ],
        [
          -1.726426232018538,
          0.04036516159025817
        ]
      ]
    },
    "4": {
      "A1": [
        [
          0.34784696979714586,
          -0.01861123967548611
        ],
        [
          -0.0701040062851294,
          -0.21471540155506744
        ],
        [
          0.20070036334560884,
          0.10096301075218833
        ],
        [
          -0.12489560282250699,
          0.25007817479685224
        ],
        [
          -0.45342159283412375,
          -0.5259451612187706
        ],
        [
          -0.5105408957185348,
          0.06385554084836538
        ],
        [
          0.02005505986081441,
          -0.3253653836023251
        ],
        [
          0.2878238882185265,
          -0.8085133586910739
        ],
        [
          -0.3938074599887031,
          0.04687503952443649
        ],
        [
          -0.13189969691898937,
          -0.17534606322939314
        ]
      ],
      "B1": [
        [
          0.09320495749556436,
          -0.052071169282932435,
          0.695253480937721,
          0.3288097661667326,
          0.646739680067593,
          -0.046677171591074,
          -0.01949932379452551,
          -0.3454955610937393,
          -0.130947564173389,
          -0.08916656828063459,
          0.0200333976203038,
          -0.2525703279533,
          0.2131521179868815,
          -0.018982999253008562,
          -0.4554762412054022,
          -0.5715738482872332
        ],
        [
          0.21146326356625775,
          -0.19951319738691176,
          -0.01825454097676354,
          1.1638897382085187,
          0.3300296464910456,
          -0.12571692016618147,
          -0.17809701520195828,
          -0.05334890910811664,
          0.1324078086713176,
          0.29903836914362114,
          0.14872170037516486,
          0.2164873151173848,
          -0.44924977540053046,
          -0.03207266342291638,
          -0.13024607258183202,
          -0.5037259840209265
        ]
      ],
      "A2": [
        [
          0.12414056767126878,
          0.20181852013437768
        ],
        [
          -0.43154516629854955,
          -0.3685211489379894
        ],
        [
          0.7038542268082573,
          0.4518273579831918
        ],
        [
          0.3801051983273277,
          -0.3771568139152945
        ],
        [
          0.7075535927041946,
          0.2634798476674992
        ],
        [
          -0.06022228566237166,
          -0.20582159542549677
        ],
        [
          0.5339789617133036,
          -0.06172590642458037
        ],
        [
          0.005313820696478257,
          0.3206268447679311
        ],
        [
          0.10915142145482246,
          0.15487044784483348
        ],
        [
          -0.46956401126035047,
          -0.06174267615358802
        ],
        [
          0.21413325781746706,
          -0.08409603648906573
        ],
        [
          -0.2868551365074073,
          0.5955428529325943
        ],
        [
          0.5032086856177007,
          -0.5670487497129101
        ],
        [
          -0.3388321017394911,
          -0.02346119061451784
        ],
        [
          -0.3782099167259091,
          -0.3041251335946719
        ],
        [
          0.16363935010547329,
          0.30513663183498513
        ]
      ],
      "B2": [
        [
          -0.4524532743627314,
          -0.553796412267852
        ],
        [
          0.0703846144755896,
          -0.15350689348920615
        ]
      ]
    },
    "5": {
      "A1": [
        [
          -0.6917712412375306,
          0.04442907586429132
        ],
        [
          1.2294009200756362,
          -0.84872647060613
        ],
        [
          -0.22118987248796865,
          -0.6107664159213169
        ],
        [
          -0.20987637004935858,
          -0.821779871059253
        ],
        [
          0.6880700203372309,
          0.47289777600374117
        ],
        [
          0.598078434830792,
          0.43519815826891245
        ],
        [
          0.6832394175835124,
          0.9740287324805096
        ],
        [
          -0.660191090225275,
          -0.23362737924415147
        ],
        [
          -1.28933908321145,
          -1.3672122498588384
        ],
        [
          0.05409767313995891,
          0.46632199476955793
        ]
      ],
      "B1": [
        [
          0.18526063837868656,
          -0.12491132190483135,
          0.25909121777389416,
          -0.15235038859730826,
          0.46257518718495166,
          1.5851410440845926,
          0.47670141158364643,
          0.1520094648818299,
          0.21109136061125042,
          0.7247457528124941,
          -0.09782344639373138,
          -0.1870369892655852,
          1.044195382215506,
          -0.031706319764648,
          -0.5141034683306727,
          0.15679881845346894
        ],
        [
          0.25438528403088234,
          -0.21756594839983084,
          0.18272608929695636,
          0.8962396710943058,
          -0.18005562855029725,
          0.6237855106942549,
          0.14787873770374618,
          1.3273930318927187,
          0.6820805491125939,
          0.8891481059351785,
          -1.9225035767760583,
          -0.5794413040233645,
          -0.7481599696824695,
          1.1951842032789581,
          -0.41057033598132764,
          -0.10218665153766798
        ]
      ],
      "A2": [
        [
          -0.21720867167302452,
          0.42582908557361787
        ],
        [
          -0.19589194130213394,
          0.568574782309889
        ],
        [
          0.18110740155918761,
          1.2808718068476066
        ],
        [
          -1.3149021424827876,
          -0.8460007053300014
        ],
        [
          0.207275352034705,
          -0.270742799244062
        ],
        [
          0.4960295931893676,
          0.08814392110131433
        ],
        [
          0.727518711873706,
          -0.23543112030537827
        ],
        [
          -0.10888067637860722,
          -1.4518519665349585
        ],
        [
          0.34343715154260535,
          0.1328631510191858
        ],
        [
          0.9024098164228335,
          -0.04960738858733725
        ],
        [
          -0.1313737354006594,
          1.1195196745902996
        ],
        [
          -0.6745042819854332,
          1.1148537528468092
        ],
        [
          -0.840339846567037,
          0.08153461128717299
        ],
        [
          0.15525425259823922,
          -0.7666076764755494
        ],
        [
          -0.028661544189726173,
          0.43200456988511315
        ],
        [
          0.19569678640935173,
          0.26172669202915005
        ]
      ],
      "B2": [
        [
          -0.08666580962062667,
          -0.6774747117402582
        ],
        [
          -1.1302897699919774,
          0.5698059972762501
        ]
      ]
    },
    "6": {
      "A1": [
        [
          -0.637218657893458,
          0.8529184505935006
        ],
        [
          -0.013630182527888397,
          0.4473096499139403
        ],
        [
          0.28848695692484183,
          -0.9344735217983188
        ],
        [
          0.5113227402538555,
          -1.203104446123816
        ],
        [
          -0.5784501997116681,
          -0.8393483913677736
        ],
        [
          -1.8467010826595125,
          -0.3287477194853089
        ],
        [
          -0.5550123333524675,
          0.3683056354995535
        ],
        [
          -0.341226294911497,
          0.027962852825726955
        ],
        [
          0.6277270233920458,
          1.1201335974721431
        ],
        [
          -0.09870545046898498,
          0.31252516889310294
        ]
      ],
      "B1": [
        [
          -0.13322005366281997,
          -0.5922144273211749,
          0.619658114365329,
          -0.10344372816178769,
          0.3958219519021876,
          0.3329101007232218,
          0.7690029838925099,
          1.0616447516443397,
          1.3143405642558004,
          -0.6941360106699979,
          -1.1459772209265542,
          -0.7859319399785631,
          -0.12062450670589421,
          -0.9124947703289906,
          0.4051902685901465,
          -0.6506204515488556
        ],
        [
          -0.8042095061963086,
          -0.2681537546185392,
          -0.05871113171096289,
          -0.012160623220148072,
          0.24084410257862968,
          0.34522186116190545,
          -0.3723793826707638,
          -0.26572092984771106,
          0.538444910827078,
          0.17815882428700408,
          0.36749928755280703,
          1.2629093719826254,
          -0.9128317640542217,
          0.9784007441129606,
          0.43208089281583617,
          -0.8577555852828919
        ]
      ],
      "A2": [
        [
          -0.8402126730896579,
          -0.3878713940954844
        ],
        [
          0.2899475448071374,
          1.0347920987427992
        ],
        [
          0.46865576294270384,
          -0.3254982854246422
        ],
        [
          -0.6062724024825725,
          -0.1306337218574675
        ],
        [
          -0.35219155972386446,
          -0.5245778683519986
        ],
        [
          -0.5188111045454191,
          -0.28481436885984013
        ],
        [
          -0.3413653980684488,
          -0.06047482646315809
        ],
        [
          -0.26810353749718235,
          0.2865883167567917
        ],
        [
          -0.23178050804616054,
          1.6834205098016777
        ],
        [
          0.2688628642316353,
          0.6324253214188215
        ],
        [
          0.39506973775610976,
          -0.03772383279885011
        ],
        [
          0.6480809136784116,
          -0.6328616568143701
        ],
        [
          -0.5816236517223232,
          -1.2638337722277362
        ],
        [
          2.235672774264526,
          -1.1190467446072445
        ],
        [
          -0.06079183244297694,
          -0.49051688760555867
        ],
        [
          -0.2648521838962441,
          -0.0679438191030355
        ]
      ],
      "B2": [
        [
          1.1155969113017654,
          0.0878409731759004
        ],
        [
          -0.5940477467134935,
          -0.22888006926888846
        ]
      ]
    },
    "7": {
      "A1": [
        [
          0.24295823182831922,
          -0.26131800788045745
        ],
        [
          0.5299739384359711,
          -0.052269832238333896
        ],
        [
          -0.6518068804020842,
          0.02952969625090292
        ],
        [
          -0.907370073246208,
          -0.9350491766953022
        ],
        [
          -0.5818851948689576,
          0.43291761127618084
        ],
        [
          -0.25369333547933387,
          0.6950488587132643
        ],
        [
          0.31634487962969005,
          0.3550342285022905
        ],
        [
          -0.7301610346880747,
          0.5771524438418667
        ],
        [
          -0.22669169218950805,
          -0.8991517937207849
        ],
        [
          -0.08083585733933567,
          0.43653926349631306
        ]
      ],
      "B1": [
        [
          -0.43882016142746105,
          -0.6348797480189291,
          -0.29581378493042393,
          -0.7536490252035835,
          -0.8193575146062568,
          -0.23560200490428918,
          -0.2059509547902091,
          0.3378891299007172,
          -0.751307269333437,
          -0.5645768773967269,
          -0.13818143504638808,
          0.14142666901952478,
          -0.13020729884930793,
          0.3190640950092035,
          0.2264420214430746,
          -0.13408557412687377
        ],
        [
          -0.36745823052866555,
          -0.48569894055408336,
          -0.5996000013457361,
          -0.7387580143493847,
          -0.4459203193646576,
          -0.6506401350140686,
          -0.676372078039482,
          0.3705279776966024,
          0.13684466319734506,
          -0.21518314422167084,
          -0.18143956604679962,
          1.2448809798303415,
          -0.03849883577979961,
          1.0088129332610674,
          -0.7534055873402328,
          0.6916008822371124
        ]
      ],
      "A2": [
        [
          0.34240762124120144,
          0.125363378064317
        ],
        [
          -0.22604656941094736,
          0.4340770473468102
        ],
        [
          -0.6985267026374619,
          0.06275283192147
        ],
        [
          0.1942806227363259,
          1.1023076771541434
        ],
        [
          -0.1941882662837808,
          -1.179984729350424
        ],
        [
          -1.165279391317612,
          0.2675515783930397
        ],
        [
          -0.17525200629663581,
          -0.10164710467807633
        ],
        [
          0.32375587823817403,
          0.4094064249326761
        ],
        [
          0.6137541280357377,
          1.1355350825021673
        ],
        [
          -0.032808054413695324,
          -0.36747857987758104
        ],
        [
          -0.2181915282613377,
          0.1015950925688243
        ],
        [
          -0.48901385148861337,
          -0.01592130702746037
        ],
        [
          -0.3395692872456477,
          -0.2959806444044446
        ],
        [
          0.9886675000672785,
          0.5233291978447624
        ],
        [
          -0.4347464724803575,
          -0.11037172957761912
        ],
        [
          -0.21894590508790907,
          0.1710250676051515
        ]
      ],
      "B2": [
        [
          0.7360434603263094,
          -0.11889129291128239
        ],
        [
          -1.0140509400781865,
          -0.9937601237526558
        ]
      ]
    },
    "8": {
      "A1": [
        [
          -0.5977130434516396,
          0.506079185662021
        ],
        [
          0.6553690983779237,
          -0.08235447491323221
        ],
        [
          0.40795737665236315,
          0.8830994159861354
        ],
        [
          0.8050273116772078,
          0.5993515137341331
        ],
        [
          -0.5016177351293475,
          -0.5089357480333954
        ],
        [
          -0.5472499628937447,
          0.8262771551739502
        ],
        [
          -1.038278402502397,
          0.21823044755887067
        ],
        [
          0.47808160302826924,
          -1.1936071180744052
        ],
        [
          -1.1692865910877668,
          0.2978798301785295
        ],
        [
          -0.22112658698166787,
          -1.619387256440991
        ]
      ],
      "B1": [
        [
          0.1810429754285307,
          0.9993168492187655,
          -0.5530042735906526,
          0.11224783938754776,
          0.2882262730969226,
          -1.29911969989227,
          0.526617191517828,
          -0.5339153840799133,
          -0.24251162176166594,
          -0.1825611089710837,
          0.09001289432668218,
          -0.3658670676794281,
          0.8916561957537237,
          -0.41762178708616815,
          0.7561281385534119,
          -0.5175956633552489
        ],
        [
          0.4720758268544645,
          -0.5086701604674889,
          -0.7521919541979423,
          0.3341233449939639,
          -0.881066178965649,
          -0.32744308184814414,
          0.5370724297581015,
          -0.8494888060704505,
          0.7083792177006893,
          0.3532967284006165,
          1.2146555763990134,
          -0.5710829541870541,
          -0.9610103226460028,
          -0.16288314762462638,
          -0.543017562497348,
          0.8935079313343133
        ]
      ],
      "A2": [
        [
          0.6553591154277437,
          -0.9111813129717704
        ],
        [
          0.4875599026489702,
          -0.8510521224785216
        ],
        [
          0.9334348671110169,
          -0.08662397288772246
        ],
        [
          -0.5507593650502975,
          0.503493041471924
        ],
        [
          0.8043790868030957,
          -0.28558727772439557
        ],
        [
          0.5019803515330393,
          -0.035953634747118865
        ],
        [
          0.4967405468070877,
          0.8394655318720232
        ],
        [
          -0.2274225837293869,
          -1.002848167788771
        ],
        [
          -0.15067524149233255,
          1.1053945021385392
        ],
        [
          0.6395844008832465,
          0.6375448812770067
        ],
        [
          -0.5325810647899489,
          -0.7922131863655618
        ],
        [
          1.2205010588422374,
          -0.6304598432022099
        ],
        [
          -0.09581969245734244,
          0.11765446987041091
        ],
        [
          0.3386536607547178,
          -0.0011493520554361307
        ],
        [
          0.8980903888167034,
          -0.7463769790137933
        ],
        [
          1.224220161058176,
          -0.6859344646425048
        ]
      ],
      "B2": [
        [
          0.8168774187520826,
          -0.1466802547688542
        ],
        [
          -0.4247826576134122,
          1.144378605509403
        ]
      ]
    },
    "9": {
      "A1": [
        [
          -0.6393828992297026,
          1.8020149773663465
        ],
        [
          -0.004274643264506023,
          0.8679239201502814
        ],
        [
          1.584094341984217,
          -0.8568355219557048
        ],
        [
          -1.2092489261592438,
          -1.6813800464828048
        ],
        [
          -0.22240796655139808,
          1.3133318317724665
        ],
        [
          -0.7967187647541467,
          1.2196066895652156
        ],
        [
          3.1243698115222687,
          0.09444058240830694
        ],
        [
          -0.2395727357301625,
          -0.7793750455600661
        ],
        [
          1.206774628250916,
          -1.654072767266994
        ],
        [
          0.17812565457050647,
          0.4395066575526716
        ]
      ],
      "B1": [
        [
          0.35337887342288726,
          -0.6163708979685597,
          0.28891734147287434,
          -0.25611839713086426,
          -1.1664873568142875,
          0.6080300185793863,
          0.4403202990696876,
          -1.215827224204452,
          0.3365440725521203,
          2.0513002048343667,
          0.13261534315361773,
          1.6685162242204479,
          0.5730704585296428,
          0.7349916573900666,
          -0.05295949690298221,
          -0.32737899172063084
        ],
        [
          1.0952851183879908,
          -1.0291748730589252,
          0.1649046209579231,
          0.17049107699012775,
          0.40899156837510414,
          1.1896298810923394,
          0.9517039808418277,
          1.5920532670249246,
          -1.073855592648215,
          -2.159439429546526,
          -1.2497926534366248,
          0.1776081788743998,
          -0.8226514892729541,
          1.0860037449042108,
          0.201107265987662,
          1.4948299478234444
        ]
      ],
      "A2": [
        [
          0.09179666214161109,
          0.14050954590818548
        ],
        [
          0.6778721307813,
          0.17756599739835752
        ],
        [
          0.5504639110899439,
          -0.1382598942877023
        ],
        [
          -0.6108925602259714,
          -0.1352603254208684
        ],
        [
          0.5128448910742089,
          0.3526520899214984
        ],
        [
          0.16736905176876327,
          2.168956016957866
        ],
        [
          2.3026598620321543,
          0.29229813248502456
        ],
        [
          0.5067509241695249,
          0.39448478052305064
        ],
        [
          -0.2996085177180309,
          0.9749804735260204
        ],
        [
          -0.9833483032198224,
          0.1073629303205817
        ],
        [
          -0.6101704137279496,
          -0.25664524453567816
        ],
        [
          0.07486352728980589,
          1.548414430675919
        ],
        [
          -0.3231971063127457,
          -0.8871607515242418
        ],
        [
          1.9056413562682015,
          0.3851920919261315
        ],
        [
          0.12434838546144579,
          0.21895167539839785
        ],
        [
          0.25673989873700953,
          -0.6540398211172992
        ]
      ],
      "B2": [
        [
          1.3334290491674192,
          0.6701293178979281
        ],
        [
          0.5770389080605012,
          -2.784703323289448
        ]
      ]
    }
  },
  "currentLevel": 9,
  "rank": 2
}